{
    "input_size": 8,
    "output_size": 3,
    "num_layers": 1,
    "neurons_per_layer": 62,
    "fitness": 94.70075735512462,
    "weights": [
        [
            [
                -0.04451737378782128,
                -0.22528906597007348,
                -0.5987816046266554,
                -0.8911639130200937,
                0.8765656833418061,
                0.6690853953839393,
                -0.2918417665775517,
                0.038854478546574533
            ],
            [
                0.04610621449647012,
                0.900629675347038,
                -0.9968607864218044,
                -0.8904038070851135,
                -0.9614823567859729,
                0.3293010949132018,
                0.8671344893584219,
                -0.5951412117603616
            ],
            [
                0.9392513356205061,
                0.42063877439167574,
                0.7350640712351042,
                -0.8104169123749108,
                -0.32133011438244896,
                -0.08624843628726175,
                -0.28179049255304967,
                0.395078374899168
            ],
            [
                0.4790281623717325,
                0.4561371483867842,
                -0.575161252311708,
                -0.5970869911240246,
                -0.03373032739375148,
                0.439024867293615,
                0.16002316925048965,
                -0.1620988351123016
            ],
            [
                -0.9061428671562957,
                -0.72575796248234,
                0.0411341321375287,
                0.3722134985629755,
                -0.1922710115631907,
                0.3908225349800165,
                0.8681280307098178,
                -0.8035657800662206
            ],
            [
                -0.732985951777998,
                0.9915868927129323,
                -0.9353830949338031,
                0.31137493479508893,
                0.39296831911530306,
                -0.44792513547508883,
                0.4556671547048372,
                -0.7102312604391852
            ],
            [
                0.1894295502689365,
                0.5408988658291967,
                0.28034521297201587,
                -0.0652161688558055,
                0.8732484045270756,
                -0.4678973833577518,
                -0.46790227892384806,
                0.4286896845435275
            ],
            [
                -0.366272519521905,
                0.8069421722256638,
                -0.17421870689145247,
                -0.8305416169088866,
                -0.6977653084650979,
                0.6736930927249467,
                0.6520311579012841,
                -0.09196270196552914
            ],
            [
                0.5384199605207347,
                -0.6979845439553145,
                -0.7627962718695989,
                0.3422036504045547,
                0.3717506101652457,
                -0.30741660974721907,
                0.044247966663216065,
                -0.9498037271539503
            ],
            [
                -0.0011665313744944061,
                -0.8076374578371539,
                -0.7450023802142054,
                0.47177930369732746,
                0.7440979700964012,
                -0.9984203215003997,
                0.3296044971744534,
                0.5525888798213563
            ],
            [
                0.8282578621045522,
                0.2910239753769397,
                0.8593288868081683,
                -0.7894133009500952,
                0.5263093367149485,
                -0.8325043601524538,
                0.5809831043614826,
                -0.5676736259393333
            ],
            [
                -0.07586865209868421,
                0.8121811594133674,
                0.1974595211832637,
                0.005394262422359741,
                0.6781187666955852,
                -0.46934819685197016,
                0.668569647111477,
                -0.9048407352683085
            ],
            [
                -0.6715628987345856,
                1.0736546147585204,
                0.025577846122832648,
                0.44254442662574545,
                -0.3279835470443526,
                0.02559996343334281,
                -0.4726316265076771,
                -0.4056431240024203
            ],
            [
                -0.46427272077051374,
                0.311075495588939,
                0.6811343772662859,
                -0.968386467100292,
                -0.5072850803775832,
                -0.4820351423785738,
                0.42624726809065727,
                0.055419533752368855
            ],
            [
                0.4779010838736051,
                0.6475193279302995,
                -0.5307886862800217,
                0.6586570791764605,
                0.4927652884131606,
                0.3316040310194135,
                -0.8443489956702466,
                -0.29538678314332123
            ],
            [
                0.31031272972325374,
                -0.657982103891164,
                0.4879324139466077,
                -0.6861012838015375,
                0.2593764644585752,
                0.40589297923370626,
                0.8588717782806046,
                -0.6693943512142668
            ],
            [
                -0.2623220747186381,
                0.6527497198419805,
                -0.5602697686965561,
                -0.43379446237208263,
                0.6036345694738043,
                0.41582640885280897,
                -0.5725873981182745,
                -0.8179246176047139
            ],
            [
                -0.8501777854999903,
                0.5224294700260046,
                -0.0372801418149713,
                -0.8649706114517837,
                0.6993786554147376,
                -0.010254534048107722,
                -0.7040195367164008,
                0.808366481033941
            ],
            [
                0.792816200384358,
                -0.2359841283755395,
                0.6264010166818574,
                0.9805018169454329,
                0.4266872539055133,
                0.18183107155397304,
                -0.9666957869261774,
                0.36143156391343734
            ],
            [
                -0.7888295696028944,
                0.7054030253642223,
                0.27557456556175963,
                -0.08378436218586272,
                -0.13086008797989668,
                -0.5308853761588768,
                0.7928881273528268,
                -0.2519016512375565
            ],
            [
                -0.14758273271742373,
                -0.7800982867029653,
                -0.5654009781521205,
                0.7401295845854492,
                -0.9079725880031981,
                -0.1287181303228515,
                0.9443702445442204,
                0.8693818716885866
            ],
            [
                0.9758122894973811,
                0.9907473926790884,
                -0.6934389030106483,
                -0.7922043985938831,
                -0.7445645185406251,
                -0.9427464331315338,
                -0.1281793951423067,
                -0.5296841983465668
            ],
            [
                0.48047364409781324,
                -0.09616379580234136,
                -0.5325995149126628,
                -0.2559051520298652,
                0.9092272962769383,
                0.04128734205250173,
                -0.42472668717240536,
                -0.5108117472059608
            ],
            [
                -0.6922331672889794,
                0.3912562634884087,
                -0.4056553141681014,
                0.9336192222207909,
                -0.4585973154760927,
                -0.749467098880896,
                -0.15705400335485753,
                -0.944185713862701
            ],
            [
                0.18013527113023087,
                0.011631513295397244,
                -0.5604840699352203,
                0.6729050111325858,
                -0.6703114133407633,
                -0.6968708301466786,
                -0.5598948886406712,
                -0.03985720169205975
            ],
            [
                -0.008470954525451102,
                -0.5378918732393352,
                0.4856289818141135,
                0.5014640627858402,
                0.283275722484124,
                0.7319941368336438,
                -0.5252988903192297,
                -0.36703923787418136
            ],
            [
                0.5942090043409451,
                -0.21057664527632136,
                -0.8263497729115779,
                0.28534552039743155,
                -0.31350294015797653,
                0.3092433339942495,
                -0.31616904623675346,
                0.8584361616117104
            ],
            [
                -0.36092317767277304,
                -0.002915357802376839,
                0.09432892571560547,
                -0.23701406452412765,
                0.012827018716448979,
                -0.24419205817491818,
                0.5145451881486958,
                0.18914021327918196
            ],
            [
                -0.2210648707827656,
                0.8959803365841299,
                0.4566048883490137,
                0.7706118797411088,
                -0.9483898806015922,
                -0.2584433199638476,
                0.884253425650519,
                -0.16159666762021607
            ],
            [
                0.07076177585213927,
                0.45047818384191207,
                -0.5477209658152156,
                0.06838201809870803,
                -0.4616441566334817,
                0.53975635563666,
                0.9577508873543061,
                0.32607585135073314
            ],
            [
                -0.8561344147204089,
                -0.06583463294657821,
                0.8712386242735848,
                0.07175326098366552,
                -0.9897304484604907,
                0.38926285913012926,
                0.21111312350655198,
                0.8958884234687934
            ],
            [
                -0.16950923701375697,
                -0.16312879245003775,
                -0.5639329356527245,
                -0.14699253884777774,
                -0.6384932117249651,
                -0.6146343398153069,
                0.1012673530722803,
                -0.6920328387734103
            ],
            [
                0.5541722971667657,
                -0.25641780375237455,
                0.907239713547737,
                -0.8271563577278711,
                0.18321830460540833,
                0.7827555746422399,
                -0.6137579210047792,
                0.33251547233128065
            ],
            [
                -0.30934983317499865,
                0.8523500156283392,
                0.32033283129251755,
                -0.0868326081409585,
                -0.09015904492890603,
                -0.8905704222301876,
                -0.6996946636149002,
                -0.5923538883574138
            ],
            [
                -0.27237641886739095,
                0.7998536140010037,
                0.7544388573683527,
                0.844653965645684,
                0.2400701033837127,
                -0.9188025147304719,
                -0.4993514242207546,
                -0.4439314862920496
            ],
            [
                0.2746840514021496,
                0.6501464457069841,
                -0.7474213728311851,
                0.9704952203973489,
                -0.3919999488191912,
                0.7361859096636885,
                -0.14824316096691526,
                0.42734319941291043
            ],
            [
                -0.003295477152621462,
                0.15267274472093462,
                -0.4491247753746934,
                0.5913175732685456,
                0.2409229182823276,
                0.5627216664626329,
                0.09868824825121814,
                0.12892090357873887
            ],
            [
                -0.9126138122705441,
                -0.4687907862725993,
                0.013837116987996945,
                0.6055685692554875,
                0.47900132813701246,
                -0.7756814880195029,
                -0.7253005220512614,
                0.5205574307120624
            ],
            [
                -0.8676915639565961,
                -0.7869661220008348,
                0.6564392018609571,
                -0.4034169537058112,
                0.8034095372678931,
                -0.9364011738487115,
                -0.15330138646498503,
                0.7013043546909099
            ],
            [
                -0.12358731658943656,
                0.17122445145502296,
                -0.5028428397564084,
                0.3179851902409334,
                0.737089378126091,
                -0.4384517517208357,
                -0.18454461238111053,
                -0.9255917558826043
            ],
            [
                0.7060961696680106,
                0.7538523901259377,
                0.12142662969460916,
                -0.37935998335435683,
                0.3331143795042475,
                0.5894860447055712,
                -0.735812639395595,
                -0.7177112227029834
            ],
            [
                0.2268913222314366,
                -0.007875151451239404,
                0.5992814929057615,
                0.5453065785864821,
                0.2525788513345113,
                0.8364723878131408,
                0.15799665400395013,
                0.23544533674906853
            ],
            [
                -0.1074385055745477,
                0.14277817569872941,
                0.36001916500106645,
                0.4328986795614902,
                0.6321941301701071,
                0.6486913442914171,
                0.454485323391405,
                0.5045856386080432
            ],
            [
                0.35215988136931853,
                0.08070052557760499,
                0.7333639519302431,
                0.5780889232652262,
                0.9625765243511126,
                0.4912627620807912,
                0.02417052316521051,
                0.5776322297946312
            ],
            [
                -0.30627557852927634,
                -0.5510907149000954,
                -0.04149892186353554,
                0.3610612521537053,
                -0.052527307973412096,
                -0.2866213266198112,
                0.3231132001844128,
                -0.8994510633477693
            ],
            [
                0.7282858628479971,
                -0.5797029149622068,
                -0.07004210217066165,
                0.8174635996724591,
                -0.8491594228935002,
                0.3522002939844098,
                0.9780245810106603,
                -0.23602551009024242
            ],
            [
                -0.38456194257212384,
                0.39019662846434944,
                -0.14484644818252423,
                0.36352207237562917,
                0.41498669370791563,
                -0.9844257036083683,
                0.740694640667793,
                0.7025516063028512
            ],
            [
                -0.4649794733590631,
                0.1907912589728198,
                -0.03860210842534695,
                0.8622631496018149,
                -0.4969515757125167,
                -0.34544624273911584,
                -0.8901627941774828,
                0.262226904554816
            ],
            [
                -0.28670012102101383,
                0.11613524334796499,
                -0.3201907372335884,
                -0.3028005920144765,
                -0.33131073517236986,
                0.6840224327862365,
                -0.7279385296417127,
                -0.6498154277929542
            ],
            [
                -0.8610085181084819,
                0.14034953859547317,
                -0.4501537577530461,
                0.948088208968926,
                0.9850446132829969,
                -0.9738377317243505,
                0.657501273147292,
                0.29422574318811234
            ],
            [
                -0.48541083649023453,
                0.4339915416366764,
                0.4421003530827412,
                -0.8506355821141496,
                -0.8479756489655754,
                -0.9702891567653833,
                -0.7109199225882461,
                0.9541585217682544
            ],
            [
                0.5391599413575974,
                -0.00046336763727539143,
                -0.7210424981240697,
                0.6819205282476144,
                0.9098905940902289,
                0.1447633990275139,
                -0.2817391322084588,
                -0.31973620233351663
            ],
            [
                -0.4232944781407555,
                0.15370253845023107,
                -0.060877290784306926,
                -0.13819269705048365,
                -0.47136401917745974,
                -0.46251646714874517,
                0.04029862897291436,
                0.8574910851978317
            ],
            [
                -0.4894374296091393,
                0.47422822493554584,
                -0.2732871488762385,
                -0.010473889702313333,
                -0.5681078575490832,
                0.11144242605211252,
                -0.21282243628880604,
                0.3651202937898761
            ],
            [
                0.9820461368725084,
                -0.176105321808808,
                0.17420435372390286,
                -0.44994008559315235,
                -0.23368900495356337,
                0.8507033105172708,
                -0.2758895741002787,
                -0.0700935163246077
            ],
            [
                -0.5672210384555294,
                -0.7315436713516676,
                -0.4315900335603302,
                0.34913613248902386,
                0.9930380807361048,
                -0.7057687163017901,
                0.09090333598542166,
                -0.6908807257770573
            ],
            [
                -0.18257809666880775,
                0.10625572879115452,
                -0.13643808095704602,
                0.6418396662354717,
                0.4346628158412831,
                0.7173604845721688,
                -0.03594886204424852,
                -0.1857626780769619
            ],
            [
                0.0004160670654866916,
                -0.6919726352784157,
                -0.055231447913436815,
                0.7866954200895742,
                0.9196331895284742,
                -0.6932735049672121,
                0.9419898288665114,
                0.8277333619008476
            ],
            [
                -0.44001939596975226,
                -0.03993830221529304,
                -0.5089942403864414,
                -0.26017662036240985,
                0.2741551267677085,
                0.9066016653426741,
                0.06415467059168489,
                -0.300356641541903
            ],
            [
                0.9466031865283693,
                0.9950999468741593,
                0.7546917423864166,
                0.5386542715742342,
                0.1779630435344084,
                0.3535656899938189,
                0.2665162025378147,
                0.7492041181812732
            ],
            [
                -0.018046477049597387,
                0.2574146149041654,
                0.2549944544091145,
                -0.03333915434342605,
                0.0872017512558374,
                -0.7384517153780641,
                0.101386510467244,
                -0.18711305870743833
            ],
            [
                -0.3605938454364028,
                0.7037668911961894,
                -0.7045250060928281,
                -0.775930690226498,
                0.9882689477287323,
                0.7177829280293924,
                0.15413475018062694,
                0.8562718812685646
            ]
        ],
        [
            [
                -0.5507848189262246,
                -0.28119734429277177,
                0.9191898500709637,
                0.6051077374103864,
                -0.6240114360124045,
                0.8174742770531882,
                -0.4672638296553382,
                -0.6565924164144861,
                -0.2160399860467046,
                0.20296872772941876,
                0.22243166522534796,
                -0.5641946871703198,
                0.7115393343887313,
                0.02419684141823253,
                0.7461895486247228,
                0.3698034905518208,
                -0.41795858659805396,
                0.22109040230553978,
                0.36821614338130026,
                0.206588400004162,
                0.922515575076305,
                0.25411612969474007,
                -0.7661931814638474,
                -0.66022326261197,
                -0.6740886035233673,
                -0.35525988426345934,
                -0.42638810007841554,
                -0.09289382367547971,
                -0.5142015776510485,
                0.25829089508822434,
                0.9760006788661548,
                0.21035202753471216,
                0.42519563722826414,
                0.9992746828185639,
                0.7274013472711063,
                0.17437019647803753,
                -0.6295486927007692,
                0.3876828597283932,
                0.2332500045529846,
                0.20394739428822306,
                0.43495810277853253,
                0.10633775226745423,
                0.14583448800706922,
                0.9225887207550272,
                0.008625152125437907,
                0.7591559304133046,
                -0.09059704465920948,
                0.5616614712118166,
                0.2384987214930092,
                -0.2838984934806341,
                0.28707071406080686,
                0.9339862885550236,
                -0.20780452366408242,
                -0.5686987809807031,
                0.14555597491666328,
                0.4801958515804565,
                -0.7857080975196562,
                -0.7806561503861793,
                -0.21749527652467915,
                0.04105707207636855,
                -0.6253143736125117,
                0.7508884060833914
            ],
            [
                0.6581625048937456,
                -0.88048685979378,
                -0.9729728827258872,
                0.19863866545026565,
                -0.06593686178879854,
                0.07668616081635515,
                -0.7334150677664915,
                0.3758576455494078,
                0.9214350732349834,
                0.1604223815059036,
                -0.39076758528014355,
                -0.2381048389044904,
                -0.017299974796881168,
                -0.9567985391255991,
                -0.025450358296240205,
                -0.9427291155682207,
                0.715923633526762,
                0.7557324360098134,
                -0.1928405638590336,
                -0.856968898927583,
                -0.7319257120457239,
                0.34903451987254597,
                -0.4951886461295487,
                -0.7825822341404873,
                -0.8378848421865466,
                -0.19921728231069458,
                -0.5903947680696104,
                0.7754610570151459,
                0.26057217655595677,
                0.3796500329326502,
                0.42668861607246766,
                -0.31846605176041654,
                -0.2086197212466916,
                0.6731018935519095,
                -0.8392879224633023,
                -0.38569006327630295,
                -0.18913945906149854,
                0.38717290922807,
                0.9699271931936322,
                -0.09083134266574722,
                -0.07581364541664204,
                0.8372845460203286,
                0.14241082040539355,
                0.16745294944536004,
                0.24569279075772532,
                -0.7752110357647239,
                0.22128871910935066,
                0.5460662638714617,
                0.4048107057176944,
                0.38344026952150334,
                0.9860274276738146,
                -0.6075037167869468,
                0.25470397783551335,
                0.7103392251402318,
                0.7397291918126436,
                -0.6172398244229871,
                -0.32565635213155586,
                -0.08444054100497222,
                0.4813498766670823,
                -0.039029459653693976,
                -0.808253166222904,
                -0.9085362596209483
            ],
            [
                -0.45970440255972367,
                -0.2839564233882501,
                0.9676407465575603,
                -0.09001582483693338,
                0.4823487292993709,
                -0.7257419105627143,
                0.7437097106275881,
                -0.47063994124568853,
                0.04892596941856309,
                0.7398530459729489,
                0.5854033800964651,
                -0.5234003725048164,
                -0.9954684555068849,
                0.4558272915454902,
                -0.9720086019728365,
                -0.02078848894461527,
                0.859795818617249,
                -0.580956914755498,
                0.3883422511418013,
                0.547130343261798,
                0.3576203075091242,
                -0.7710542734247281,
                0.8111202859823905,
                0.8269642152849932,
                0.9256819252991686,
                -0.790301806844895,
                -0.5917799870343359,
                0.5656612567048411,
                -0.48092218331301684,
                0.9554385905890035,
                0.7398138579657862,
                0.4113624581704449,
                -0.44054346578872816,
                0.8692087845886975,
                -0.9939006198566582,
                0.7028041876666298,
                0.20662335614244287,
                0.3182416227052902,
                -0.6871101734591234,
                -0.5163890140540646,
                0.5249426567387376,
                0.21522304914990165,
                -0.3581040334847576,
                -0.8974746547072552,
                -0.6693209807758433,
                0.4216190912542819,
                0.30938978064686373,
                -0.25665394284305343,
                0.6933721603098593,
                -0.6662401483461258,
                0.35651794909145007,
                0.20579082047475183,
                0.37519570679726577,
                0.18208740867845852,
                0.9231858866357843,
                -0.38423194802221494,
                -0.23918100998140956,
                -0.6834395301659633,
                0.24241002890406915,
                0.041211181436536126,
                0.9572240648809129,
                -0.6252288119820608
            ]
        ]
    ]
}