{
    "input_size": 8,
    "output_size": 3,
    "num_layers": 2,
    "neurons_per_layer": 35,
    "fitness": 95.90749277609332,
    "weights": [
        [
            [
                0.23369477065276834,
                0.827800409736198,
                0.48890400264344214,
                -0.5321243754430041,
                -0.5718225553590557,
                -0.4703308731616769,
                0.8658175303331384,
                -0.5979214723305848
            ],
            [
                -0.8838534593175995,
                0.9229177630261698,
                0.9716579030285164,
                -0.5228362453718041,
                0.3425972592116706,
                -0.5101653308095755,
                0.9320458902260071,
                -0.4312675868388314
            ],
            [
                -0.04377733085737012,
                0.2126913593379245,
                0.5063026821277392,
                -0.9486052880216398,
                0.7712258472747031,
                -0.05337794477934232,
                -0.46149452737688534,
                -0.26642176583044375
            ],
            [
                -0.46597158783253123,
                0.22845693134462164,
                -0.5446890718135304,
                0.08941711605237423,
                0.015548197497321947,
                0.7660315352621401,
                -0.2727708800310964,
                -0.9251437300386345
            ],
            [
                0.08707324405649408,
                0.7607452256308354,
                0.7652711802300911,
                0.3494475161917021,
                -0.17568451833197996,
                0.11848079766719577,
                0.4062828351542367,
                -0.8297459890784964
            ],
            [
                -0.8216026577984223,
                0.8624439079268655,
                -0.9844282254929255,
                -0.3487171993561342,
                0.953521728696302,
                0.9454691768162118,
                -0.5803252041696487,
                -0.7928342432191031
            ],
            [
                0.8309902288787367,
                -0.6600003284105924,
                -0.2352022472058497,
                0.6312875973932963,
                0.6390803274117003,
                0.12588380211570271,
                0.6980126498608181,
                -0.2538495161305925
            ],
            [
                -0.0778804146703489,
                0.6237644807732807,
                0.030876214125372448,
                0.39375371905156586,
                -0.1685180082806237,
                -0.4798428444504057,
                0.23806812331475058,
                0.34401662173478464
            ],
            [
                -0.284294739077823,
                -0.8292042824652028,
                -0.08359520784193597,
                0.19023663504367105,
                -0.6447530782402489,
                -0.05284082708894022,
                -0.9890881485726035,
                0.2433460152335547
            ],
            [
                0.9591560453998875,
                -0.07092695038818464,
                -0.3897616913713431,
                -0.08318337029372636,
                0.22246283177687198,
                0.7186314961070266,
                -0.3335374971788234,
                -0.8402655212266907
            ],
            [
                -0.527290158836998,
                -0.9734907561756503,
                0.2251481736540255,
                0.8212358928620678,
                0.8177205540717367,
                -0.22919517172984305,
                0.3888813309407255,
                -0.1777804903323259
            ],
            [
                -0.7448577899418574,
                0.7786424418297839,
                -0.5229443490979915,
                0.21666074577866445,
                -0.02674987998995748,
                -0.15786557987384087,
                -0.4767746662364618,
                0.9881030598753946
            ],
            [
                0.02649510452840298,
                -0.6404058016900396,
                0.7435709275579458,
                0.5974689122922492,
                -0.2478129550128163,
                -0.937821857689628,
                0.7986168645814722,
                -0.4326498188891428
            ],
            [
                -0.37919679935748984,
                0.28287717751958374,
                0.23016967198018046,
                -0.6563063937438578,
                -0.07524356604534255,
                0.013419635018339315,
                0.8510428907760552,
                0.4734380612503688
            ],
            [
                0.48057969003477496,
                0.3658871275592137,
                0.10088892494896684,
                0.4300481281130837,
                0.525923445017964,
                -0.396456498497904,
                0.29571830608624516,
                -0.3199762619985653
            ],
            [
                -0.38809416894745086,
                0.7178605517841807,
                -0.30724988576865697,
                0.8083830023657959,
                0.3667761806494063,
                -0.7038961296847426,
                0.4579186109796898,
                0.781279758433993
            ],
            [
                -0.5305457527513626,
                0.0645015145921497,
                0.8749869394374692,
                -0.17269323673533,
                0.5840414902574789,
                -0.8352623389477263,
                0.19176336481226586,
                -0.13707507787415563
            ],
            [
                -0.07022586767027139,
                -0.37420657711201843,
                0.4320013382545631,
                0.11417478169190565,
                -0.034997774999621534,
                0.047976396517461994,
                0.35125298563416063,
                -0.8708521688977622
            ],
            [
                0.3652750311780786,
                -0.46213479817335923,
                -0.5427983837395729,
                0.18636437166349018,
                0.974833535309215,
                0.55126226867685,
                -0.9051029448521168,
                0.2152767706917198
            ],
            [
                -0.8500325284965717,
                0.3901892351599494,
                -0.7429453210356076,
                -0.879153469640652,
                0.9709680548936814,
                -0.4331495099776286,
                0.3312306495955373,
                0.36747478400628375
            ],
            [
                0.672647548294385,
                0.41409668623062235,
                0.9564883328562002,
                -0.8426600932542476,
                -0.3672142870314501,
                -0.7295418786145311,
                -0.4792545023902226,
                0.30566390113006103
            ],
            [
                0.4678629542227992,
                -0.9958077875080455,
                -0.8430222563768939,
                -0.9633040936821622,
                -0.3120987279628269,
                0.25259535890270435,
                0.6588860360989612,
                -0.00031826181963290345
            ],
            [
                0.7614821672231986,
                -0.8409311961861574,
                -0.7609885190635592,
                0.3568952707916415,
                -0.2206107860152653,
                -0.43620841567921564,
                0.9675064667252844,
                0.19873051897915817
            ],
            [
                0.7032969244459377,
                -0.5959589637319305,
                -0.20571644026392444,
                0.7549198519471052,
                0.8478948183022783,
                -0.920938808425688,
                0.44343100583023065,
                -0.46879704315465176
            ],
            [
                0.029848697489534004,
                0.5369941356361521,
                0.5632255936750914,
                0.327987487003472,
                0.11111241234033997,
                0.6582799618291892,
                0.9442060183880194,
                0.7907005596359504
            ],
            [
                -0.39623066772275606,
                -0.17073468814767434,
                -0.08757639398831762,
                0.9097485660392945,
                -0.6112094459993569,
                -0.9760322478521231,
                -0.3200503528126002,
                -0.09501027297003706
            ],
            [
                -0.8081490360455463,
                -0.13575575327664957,
                -0.6014995638244025,
                0.1741479055954307,
                0.6271174590628226,
                -0.04242341917669479,
                0.14776230852791605,
                -0.5330420754854648
            ],
            [
                0.00627908194072857,
                0.6904691878235505,
                -0.8035838317935315,
                -0.3721922134875917,
                0.5535628476540797,
                0.419387553039527,
                -0.4961727241634888,
                0.7996242963056168
            ],
            [
                0.061207755464332214,
                0.9683303205948037,
                -0.7612597111172492,
                0.7898884056382525,
                0.8249749256807384,
                0.06500506489831426,
                0.17827758597498056,
                0.1460353295512964
            ],
            [
                0.44172369443203996,
                -0.5686813939678077,
                0.07428574227218232,
                0.14369063919026304,
                -0.7816487318326459,
                -0.9758533364133226,
                0.6914568549658917,
                0.2752208401778742
            ],
            [
                -0.8509771873467156,
                -0.13696782085030068,
                -0.7429544683248865,
                0.2307699463313888,
                0.926602946222078,
                0.05914467003189783,
                -0.5333295683161474,
                0.5471113262914027
            ],
            [
                -0.8003094915516651,
                0.653510929040551,
                -0.9933921217017325,
                -0.9999121994514772,
                0.874748015690529,
                0.08411578270841602,
                -0.1484077823487573,
                -0.617854092611634
            ],
            [
                0.6690558483753997,
                0.8032633686950545,
                0.45299654542209966,
                0.35573770717946696,
                -0.374101614039416,
                -0.5462903869970943,
                0.6429754883136682,
                0.5280851303148835
            ],
            [
                0.5332157924611185,
                -0.6883152826179431,
                -0.8239968404879434,
                0.252290664068612,
                0.7037019622423508,
                0.11166722328775958,
                0.6904702181918119,
                0.5001192022514751
            ],
            [
                0.13013122352749074,
                0.09250078382109783,
                0.16597230631074766,
                0.18287878058193274,
                0.8137775801106963,
                -0.5053404850806233,
                -0.5047090528812133,
                0.10967761925948172
            ]
        ],
        [
            [
                -0.4332875578251245,
                0.9525678643444304,
                0.23988522371141308,
                -0.961710549607721,
                -0.5378783099600386,
                -0.5749358089795364,
                -0.774264966390324,
                0.9634077381548847,
                -0.4591025471124701,
                0.48915595961978275,
                0.5958878497964777,
                0.05522909461563463,
                -0.29392687483160573,
                -0.11597578548692122,
                -0.8015684586312302,
                0.97496499250067,
                0.10751503331402557,
                0.3394786632388458,
                -0.7860919203498633,
                -0.04895955262537233,
                0.6202180021585522,
                0.8195983764506269,
                0.6127391683862902,
                0.0961629825547552,
                0.28476298465362615,
                0.7734415472374669,
                0.21403435126556491,
                -0.926560816395712,
                0.3963257740896782,
                -0.3122570066241068,
                0.5778823292558368,
                -0.3525531707449743,
                -0.5806932491371988,
                -0.1823024144548817,
                0.8531061178490387
            ],
            [
                -0.5782004277685548,
                0.39482627446740315,
                -0.17586599568597938,
                -0.722551128257366,
                0.091668194946948,
                0.6383499775791985,
                -0.1805006880230995,
                0.3932937920934876,
                0.20894122748613375,
                -0.3383922430739852,
                0.20341109750480268,
                0.08288290972921297,
                0.4785331482625128,
                -0.9404251174721858,
                0.08367124675566973,
                -0.4944940259264965,
                -0.0641111115031745,
                0.5665800188425627,
                -0.13394717960752578,
                -0.7295535843902679,
                0.8559086876691369,
                0.3920016105921391,
                0.5058387411455347,
                0.5988020502089708,
                0.28515302238609186,
                -0.051387102461288636,
                0.010567575969304022,
                0.9166743776734272,
                -0.6324421669034879,
                -0.8456109448261291,
                -0.2139171397552897,
                0.248654868895392,
                0.9810661775409397,
                -0.7684648426720415,
                -0.18034391466778854
            ],
            [
                0.6156555352276731,
                -0.453263400668138,
                -0.9423619285235503,
                0.3491313655284962,
                0.04240825769318479,
                0.019110914777994648,
                -0.4979235398294737,
                -0.5795033304364534,
                0.8756249951668402,
                0.31089568456954897,
                0.6279785155799169,
                -0.07035691678763523,
                0.09124171565308137,
                -0.5248093130505687,
                0.3965938929536472,
                -0.6954562850140473,
                0.3849543338086163,
                -0.7229766111947675,
                -0.9929364768491307,
                -0.5093603961091555,
                0.017360728643390777,
                -0.0398114433374126,
                0.30930726114034424,
                0.3845790744306563,
                -0.7545484061797745,
                -0.6111359368015123,
                0.6165926561260275,
                -0.3754850927380933,
                0.06597504273293908,
                0.7351086112353338,
                0.0017828948580054238,
                0.9379016591591269,
                -0.03148240052943607,
                -0.5029349494139743,
                0.7410120780316114
            ],
            [
                0.30617832646413246,
                0.6661178234285439,
                -0.47770382849928295,
                -0.30574981895480025,
                -0.8139483315398617,
                -0.4189131677405711,
                0.8202046885497338,
                0.16967622215479428,
                -0.1678921364082182,
                -0.1408022734947767,
                0.8536049570358439,
                -0.30245382933317067,
                0.10242498301541647,
                -0.4974293329914399,
                -0.35766290394205846,
                0.3544917904831826,
                0.6666443031627678,
                -0.7305259832893682,
                -0.8823188395079835,
                -0.14638798022323685,
                -0.7178117520557454,
                -0.9494914666903216,
                0.46103241212434254,
                -0.1024031833768475,
                -0.7226464096207588,
                -0.130515469764648,
                -0.022805995978976146,
                -0.1692849801971803,
                -0.9720603828225474,
                0.013622993882386414,
                -0.373136258973487,
                -0.986838082246627,
                -0.10469114120744027,
                0.5945438904309366,
                -0.29557419597897083
            ],
            [
                -0.3650996128689352,
                0.260502703133918,
                0.12195866777217357,
                0.2576195980176057,
                -0.2659783621406495,
                -0.7637123598827185,
                0.25944758272893376,
                -0.0784451982988803,
                0.7065262540890878,
                0.6256549366273678,
                0.4094517950259715,
                -0.20075742871546343,
                -0.7725003072997274,
                0.2640471400218407,
                0.29359098124511296,
                -0.17581038536087434,
                -0.5427526931330637,
                0.6160158833371192,
                0.28135012359964695,
                0.7525703198420131,
                -0.25038086067134513,
                -0.6813592261410928,
                0.5274459321260561,
                0.49561976839438837,
                0.8049177690540805,
                0.6772592098716406,
                0.9124376856617338,
                -0.0805529335068782,
                0.8462151649032024,
                -0.20120673786940135,
                -0.41898533713377994,
                -0.2546509211762158,
                -0.04280827571055568,
                -0.34261836805280055,
                0.7743888091978666
            ],
            [
                0.5044962579736101,
                0.5234558934916664,
                0.3358256554098793,
                0.5779144143616313,
                -0.9932709968870268,
                -0.8215754244428153,
                -0.8564010676569758,
                -0.1811775384248011,
                -0.5379921663557403,
                -0.8063736496932283,
                -0.08624071506001663,
                -0.48256662682825424,
                -0.07651118195136686,
                0.2697389828925536,
                -0.9979477457286474,
                -0.20387413278316413,
                -0.6069448234471428,
                0.46153214238522344,
                -0.23416488767110222,
                0.03532681289153383,
                -0.1920557119092019,
                -0.769032389586153,
                0.816909649858867,
                -0.6712563662557043,
                -0.6744774701614225,
                0.9850145588172645,
                0.7263320887532358,
                -0.06924937200264525,
                0.06723410080197323,
                0.1132705119715478,
                -0.7130385559942491,
                0.8231094425885752,
                0.19075962335381158,
                -0.5544056988399912,
                0.08816644744605773
            ],
            [
                0.12334942264219806,
                -0.8046568912185201,
                0.9136523829772147,
                -0.08582095589736305,
                0.12592898559095111,
                -0.6078163045488771,
                0.11497506130431479,
                0.7154188057222783,
                -0.8383508214688955,
                0.6784192764852413,
                0.37579692079514593,
                -0.8557077633258452,
                0.012819401338725278,
                0.3751322019070993,
                -0.48412327116249254,
                -0.1865287909667943,
                0.39772338751623093,
                -0.4997322444758072,
                -0.45749988907757766,
                -0.8892737246874134,
                -0.188722018913819,
                0.639611527104452,
                -0.25394010804306366,
                -0.8202759928344632,
                0.6098735019478283,
                0.5183783724074589,
                -0.1900691173251745,
                0.1347696763126951,
                -0.3227751574307154,
                -0.1014970149727692,
                0.30580301625066175,
                0.3838652602662491,
                -0.8948765103737091,
                0.8371803623324043,
                -0.9292209846241024
            ],
            [
                0.7108660606263102,
                0.4623656511637404,
                -0.1987950032736392,
                -0.2599540225274113,
                0.20465423219920642,
                -0.9190910628890743,
                0.36429251355882686,
                -0.1457778663153928,
                0.2774646176850595,
                -0.12099611600894411,
                0.4080049529294052,
                -0.3137071281409862,
                -0.3008652730699197,
                0.5807580496001623,
                -0.4637877035371831,
                -0.8757383386806368,
                0.35921955768979874,
                0.15268479338110486,
                -0.6223845130723,
                0.2523606164962444,
                0.3174228546247251,
                -0.8455264648304326,
                -0.014883859098876684,
                0.5330401566697549,
                -0.30423420706319626,
                0.6971626634672712,
                0.1124807145020772,
                0.7387590625343587,
                0.7390446617434956,
                -0.2219202369433988,
                -0.46632628844544,
                0.4300672094424669,
                -0.17892381318849226,
                -0.22444484677226884,
                -0.6258186551079277
            ],
            [
                -0.8706900014449495,
                -0.40620380429561287,
                -0.6743822645284261,
                0.4292869059830067,
                0.3867142938525858,
                -0.3878781636473916,
                0.3014401518773413,
                0.2536427796862375,
                -0.5836107727859212,
                -0.4671417203868944,
                0.6731762955090748,
                -0.5168410949305682,
                -0.2206755875265778,
                -0.5996482461770043,
                -0.12162114062520701,
                -0.35433466956816395,
                0.5073099778885057,
                0.30223835997932325,
                -0.2970842134218006,
                0.7238447790621916,
                0.4823563056629563,
                0.5935859568312831,
                -0.38410418050722295,
                -0.6990939687780207,
                0.009651223907257034,
                0.9722542170948989,
                0.6521301980210386,
                0.825809697817669,
                -0.9556210646233825,
                0.7081855711172507,
                -0.07941296522249552,
                -0.3947076291586862,
                -0.14408117557840905,
                0.3148744156711307,
                0.9427942705742673
            ],
            [
                0.9508530098860057,
                0.06670865144583682,
                0.5646684096314563,
                -0.7718238274455562,
                -0.7566295560022447,
                0.7352643194925235,
                -0.019732056954088417,
                0.4378217097182613,
                -0.6851650802806797,
                0.81726888280878,
                -0.468606042189488,
                -0.6452275083277526,
                -0.18907222464669204,
                -0.5141647801211224,
                0.9403312433070528,
                -0.9980849908987905,
                -0.09065103447557421,
                -0.19147746775325958,
                0.3173454680010592,
                -0.3481005895947318,
                -0.13767168737685975,
                -0.8106619700518123,
                -0.8403823766688192,
                0.5969272185355001,
                -0.05284992120738807,
                -0.9263216257834288,
                0.5706204737817651,
                -0.5401029450360959,
                0.5143476391701551,
                0.9424596485427896,
                -0.9968214865222862,
                -0.7312660868433025,
                -0.7762094345970123,
                -0.809444271132858,
                -0.21972564669546135
            ],
            [
                0.6675438507054765,
                0.001585393128920476,
                0.3619860229950107,
                -0.9033630934606347,
                -0.33390723381313103,
                0.9165649745295603,
                0.9433692642882334,
                -0.750197847372114,
                0.8070103216665978,
                -0.6215296793034986,
                -0.3776469436851513,
                -0.408875540630504,
                -0.453147186027703,
                0.5173739104410153,
                0.39105921842216484,
                -0.6573175764547463,
                0.11924005837487384,
                0.0797684447093665,
                -0.8166799484113454,
                -0.26624185479265616,
                -0.13838151019481826,
                0.7468373229947076,
                -0.4067925822712619,
                0.4167472309731468,
                0.4060855487149566,
                -0.037787251357259466,
                -0.881122594121762,
                -0.38467083379786327,
                -0.29250349100322204,
                0.19732921396241787,
                0.6849143101735384,
                0.8142240602121371,
                0.4180411844559957,
                0.9512494375815421,
                -0.5997080676187401
            ],
            [
                -0.6998769287001216,
                0.10567946204862455,
                -0.354900520346078,
                -0.39875949159792645,
                0.8941234907091962,
                0.03822248428131392,
                0.7604037728006112,
                0.04826210980793122,
                0.39446948759520306,
                -0.47402490556133503,
                -0.2592493269817029,
                -0.40032524123360314,
                0.10810917728134206,
                -0.15382407628657013,
                0.7028009600724996,
                -0.4044802319328382,
                0.0077313412063111375,
                -0.4655802021306066,
                -0.52320452777912,
                0.6342072953487479,
                -0.9433081485357062,
                -0.19319605677029905,
                -0.10849498569987803,
                -0.17612409531592843,
                0.6349693882369312,
                0.8755136236712651,
                0.5962340264761221,
                0.6455253468092816,
                -0.6153134201033816,
                -0.9838020277770081,
                0.3016735736266021,
                -0.670462173444007,
                0.4152778780726254,
                0.7168739156009025,
                -0.7244603144423736
            ],
            [
                -0.2523731010885968,
                0.3831614282867233,
                0.9920061620006573,
                -0.2064319501239813,
                -0.46257342012457836,
                0.6301142469960928,
                0.5947070590790053,
                -0.9680222581754339,
                0.6570007552892241,
                -0.1956580653846134,
                0.9551288342279205,
                0.9167301026665691,
                -0.17111045584837603,
                -0.6933886511568454,
                0.36639373631880656,
                0.5471967208772364,
                -0.7998216409742949,
                -0.15127409269452796,
                0.49288888582119705,
                0.7603546016340752,
                0.6347503019074707,
                0.08888049929096997,
                0.4068153641499761,
                -0.16890550336407828,
                0.7302714794307785,
                -0.12292690599381251,
                0.19959476171145996,
                0.2751263189061677,
                -0.8628019354303527,
                0.10923252085108137,
                -0.5464646827743616,
                -0.27139606463242427,
                0.41709290697179213,
                0.7514695261112476,
                0.8046747116398727
            ],
            [
                -0.9219710708653339,
                -0.9849239697885319,
                0.7123306717872668,
                0.7912411127813097,
                -0.3395715189922266,
                0.3348911427882513,
                0.5438797629830845,
                -0.18950509059374676,
                -0.6505983254902412,
                -0.3850880777201102,
                -0.2542076788993972,
                0.05533688012533222,
                -0.982457203137111,
                -0.0890307460163613,
                0.24048071960802364,
                0.6129837795051523,
                -0.8201973103181934,
                -0.475320291798879,
                -0.15152646900795985,
                -0.5454497922167427,
                0.8000730753903125,
                0.8852035520863066,
                -0.1680354750823967,
                -0.8808821514096183,
                -0.6647317630215961,
                0.47546515490728547,
                0.9894171657075541,
                -0.3234119823687496,
                0.2501864684561006,
                0.15727245011051316,
                0.469830708609309,
                -0.681854916354675,
                0.6118293025443047,
                0.7310961404899332,
                -0.0007891333490417374
            ],
            [
                0.48661685550559675,
                -0.5648833172139314,
                0.08517988290166523,
                0.5864732091254248,
                -0.035504020954276516,
                0.6162915070396313,
                0.5758619308007531,
                -0.2462457733499639,
                -0.3857174109093844,
                0.6003135587494521,
                -0.9577463675751219,
                0.2656433973011323,
                -0.14025362386274765,
                0.13882110738401576,
                0.47479999008629736,
                -0.2635222419523895,
                0.2295755947794984,
                -0.0826275333396056,
                -0.418180578989934,
                0.6522086592691254,
                0.030355725659301225,
                0.3484949568987712,
                0.3453179084032234,
                -0.56281161521116,
                0.7577781663774679,
                -0.9792865570834524,
                -0.10150363515755179,
                0.8710234976832352,
                0.911909903671295,
                0.0406987966054122,
                -0.17162464253626952,
                0.8346066933831506,
                -0.04383642151351097,
                0.2129695934416942,
                0.055066335499652785
            ],
            [
                0.3825838852120247,
                -0.3361633206756227,
                -0.6011772964033013,
                -0.6716511801842495,
                -0.721102094877367,
                0.8084335027049667,
                0.28619083858418337,
                0.42037678094317554,
                0.9338380473220869,
                -0.005095859382115542,
                0.9507239207240801,
                -0.809250427762481,
                0.4501960038638464,
                -0.2802683056443527,
                -0.9534810705403203,
                0.22776593333172213,
                0.5729004261820991,
                -0.31579569315795997,
                0.48077303352301004,
                -0.9761984452665038,
                0.1677947169082692,
                -0.8505504600713778,
                -0.5602746141172013,
                0.9250044254492582,
                0.6401569305041646,
                -0.07315074752285966,
                0.551130653498926,
                0.5028735546424727,
                -0.6711739214647128,
                -0.0032062329227442454,
                0.4129633198807521,
                -0.5037057934688474,
                -0.7355915459520217,
                0.7710566074748846,
                -0.5506732926049525
            ],
            [
                -0.1988017005141045,
                0.6166471869965882,
                -0.28566722876964334,
                -0.1464853684441747,
                0.5114022681742907,
                0.4215558900442915,
                -0.7033875266527287,
                0.4492732178975265,
                0.9210817748847135,
                0.7679236833938317,
                -0.3601296839973025,
                0.916225710267057,
                -0.17994864786447007,
                0.44010934024322457,
                0.6794999101903492,
                0.6576249457644208,
                0.7006594857853372,
                -0.20913896516663777,
                -0.2838736012607004,
                -0.7107847914088978,
                -0.6699334833477562,
                0.5854756368594787,
                -0.5838187927080716,
                0.09279997390124839,
                -0.9165511916939106,
                0.5573569934062099,
                0.33996375040587656,
                0.21451055133427288,
                0.13643850278130532,
                0.37804676489578193,
                0.003606181014445209,
                0.0846219075762995,
                -0.5981567371827863,
                0.42947323613122723,
                0.8909270753193623
            ],
            [
                0.9949284140117067,
                -0.13954861637570914,
                -0.23800733807831165,
                -0.36857688977254055,
                -0.7093927598753742,
                0.8956348918825501,
                0.10509486838470927,
                0.5078737993998466,
                0.30604952171854904,
                -0.08265565674473963,
                0.784914099746663,
                -0.19168319458788718,
                0.2881548577012538,
                0.31664993915150186,
                0.26275829471647927,
                0.6868979108758537,
                -0.9484025070173967,
                0.4733157692555938,
                -0.12022878077550447,
                -0.8392278340263115,
                0.752204992476855,
                0.6659604713867324,
                0.38125782430263655,
                -0.7383585184057446,
                0.7722205618618645,
                -0.1890765904888423,
                -0.889813573691776,
                0.4519846024072671,
                0.7249616716146179,
                -0.7071987308985783,
                0.7955684134689638,
                -0.41997871687468846,
                -0.7221654823963737,
                -0.7500649396313999,
                0.434059552392712
            ],
            [
                0.3454960420185271,
                0.7628167296414898,
                -0.11252998076567122,
                -0.8631425848288112,
                -0.4342350666001591,
                -0.9822798833544641,
                -0.8432333560601826,
                0.039010227522564556,
                -0.7958090505131954,
                0.5720252275333646,
                0.09733074927155494,
                0.6144691400650324,
                0.4841468584339481,
                -0.11345360585341657,
                0.9342331659949028,
                0.40877625143876695,
                0.7479408538451766,
                -0.7763527866808924,
                -0.029144180954126186,
                -0.9480005197489831,
                0.47995046997771196,
                -0.046544670351961415,
                0.31929483693607796,
                0.717578002734105,
                0.8340870792617705,
                -0.38124035001455403,
                0.0315025119290373,
                0.4201619500212104,
                0.06607356491100647,
                -0.2771009119593095,
                0.6923050774749628,
                0.6989957667764619,
                0.6951134517357309,
                0.779724988123859,
                0.4209743466801614
            ],
            [
                0.48656409171405546,
                -0.929397286121326,
                0.6366202767705833,
                -0.30054894279094513,
                0.5249146773029252,
                0.9946999210099818,
                -0.09050992396343238,
                0.07596466597513696,
                0.6163486081700169,
                -0.61087132609393,
                -0.21829128812201026,
                -0.27207068574590054,
                -0.37496669161289176,
                0.5519655528872787,
                0.39920188903844633,
                0.6357188238050755,
                0.9769407117203086,
                -0.7693896537226832,
                0.8778504242044205,
                -0.0056988619317484,
                0.15017879383798372,
                -0.6116354688302243,
                0.1612677758918355,
                0.06339422915665693,
                -0.1736171202671244,
                -0.21896779058111226,
                0.49377851378260273,
                0.7463810634799597,
                0.07443628390493862,
                -0.8914932133192146,
                0.5369413736234239,
                -0.3582567009801787,
                -0.4696500035960911,
                0.316083523425994,
                0.6448226418490843
            ],
            [
                -0.5574433125559577,
                0.6817501507796828,
                -0.6591510610073552,
                -0.002308143204058588,
                -0.8605676777495821,
                0.06501016321223152,
                0.8821687959431452,
                0.1993615683744987,
                0.4356219919085238,
                0.20090613566648163,
                -0.06384085537455375,
                0.015634092766428687,
                -0.19487503838799136,
                -0.6053595361798421,
                -0.3837048332331998,
                0.3712543596191422,
                -0.9193033865218003,
                -0.8982420672458298,
                0.022667167881001093,
                -0.5755423957342967,
                -0.3163325037945497,
                -0.3377007190991741,
                0.46330748371417196,
                0.1270709222425428,
                0.8753787191790068,
                -0.4763467652360549,
                0.5123336875815565,
                -0.3514221688766721,
                0.7975349558086249,
                -0.9013595886473698,
                -0.742793634697501,
                0.22962641528051764,
                -0.7528961781352144,
                -0.9041110639848302,
                -0.3538365432969619
            ],
            [
                0.6466391259497846,
                -0.9239392754104634,
                0.7626094362318523,
                0.8429267591924203,
                0.7205010807892094,
                -0.185133626597751,
                -0.7344299598910995,
                -0.9704378240926597,
                0.2847939006944158,
                -0.3191106355179196,
                -0.047146018950493085,
                -0.6805116449116833,
                -0.7640940820499305,
                -0.3577746331028966,
                0.9048532162352001,
                -0.6933067457294246,
                0.14833600100132838,
                0.31328805382311464,
                -0.9287924123853737,
                0.04085051140780327,
                -0.8830275200524325,
                -0.6765577711049318,
                0.593986497363421,
                -0.10228598103241837,
                0.21047961420716188,
                -0.4640066004536425,
                0.701742912628563,
                0.13423628496976536,
                -0.7918108642506692,
                0.41516228913915043,
                -0.4848202781835995,
                -0.4559810226587626,
                0.5263578827324582,
                0.49104208279794004,
                -0.8208417235105678
            ],
            [
                -0.4724919708940978,
                0.18100988914306493,
                0.7249328673291577,
                -0.2544612068329879,
                0.3522163507636271,
                0.12366124308096738,
                -0.4526870204794866,
                -0.9643417333386042,
                0.33139665355963266,
                -0.18557629186462665,
                -0.8492931875278726,
                0.20606468717979998,
                -0.09839511174158999,
                0.08912704148908057,
                0.7174702762939875,
                0.7917545362761751,
                -0.4411745877962079,
                0.333350054542652,
                0.33343735047215994,
                -0.2930757949984948,
                0.7326993794696703,
                -0.23787918288270338,
                0.2882512268440447,
                -0.48767700992929375,
                0.4984417241374659,
                0.06274487670935147,
                0.5799717058687477,
                -0.054241396143224874,
                -0.5199550054743745,
                -0.21092946988099004,
                -0.3017351665494603,
                -0.3693699073029253,
                0.030727065814338372,
                -0.8137012301878019,
                -0.8755802916536326
            ],
            [
                -0.5914064457309085,
                0.8334035678568292,
                -0.27679565939527384,
                0.7002060516465194,
                -0.9036063710746374,
                0.2891370955382786,
                -0.6939970994602003,
                -0.39726715792360645,
                0.1971728857780244,
                -0.786917756126222,
                -0.8648866884041801,
                0.8016262719943317,
                0.2740816537655828,
                -0.9197028106159486,
                0.7410104060097191,
                0.14072080601394532,
                -0.7015836094699288,
                -0.44577719591052367,
                0.6331964317151271,
                -0.3533733174636695,
                -0.01411153160887002,
                0.23070243431017934,
                -0.12632203935356356,
                -0.65586641207529,
                0.7182300995579061,
                -0.2590043411676366,
                0.30850837994441416,
                -0.2119913264442932,
                0.8932714012897045,
                -0.8878278608321108,
                -0.18491575223454126,
                0.7091038199179405,
                -0.2806195634780446,
                0.9076420860544456,
                -0.3239363750412607
            ],
            [
                0.41361313083559703,
                0.9532533167844393,
                0.19813574898428565,
                0.8315707506512517,
                0.44426860317470984,
                0.02994610485776339,
                -0.298310137217783,
                0.26998030743997226,
                -0.17833869226719767,
                -0.15384725746445715,
                -0.4506820229327966,
                -0.5674313381033564,
                0.3419549556939179,
                -0.15014412346922645,
                0.019526059310083888,
                0.5974276845622917,
                -0.6635232449556603,
                -0.5199420375205872,
                -0.49465088814867086,
                0.694057330979956,
                0.7105234693751681,
                0.8216251521505018,
                -0.5281691860479008,
                -0.35056762112754836,
                0.7245505516427064,
                -0.61133271541126,
                -0.356709184103408,
                -0.746849992687844,
                -0.10080724682573705,
                -0.09088858091560281,
                -0.22124672939982126,
                0.528184511546909,
                0.19149806786098922,
                -0.3287658993271143,
                -0.3869042034761343
            ],
            [
                -0.3366509295365028,
                -0.03962373981558409,
                0.7389297597654501,
                -0.576980891571623,
                0.5267454243434175,
                0.9320098096156817,
                0.9797615216167943,
                0.05399581348691562,
                0.18284424158117885,
                -0.7827204729807515,
                0.4404163134840706,
                0.8780104499902268,
                -0.7218973570610225,
                0.5093578981298772,
                0.9675319829318623,
                0.9335341697303925,
                0.668123837492653,
                0.020387916270028228,
                -0.18030866285557945,
                0.2937525082168313,
                -0.3186651555574018,
                -0.7191524096130746,
                0.6909133147801281,
                0.5141402813457523,
                0.8194040903248727,
                -0.5673101733469159,
                0.6415442919365024,
                -0.44440864826520055,
                -0.4848327485223265,
                0.21833807789241155,
                -0.8418858372433353,
                -0.6253354698343621,
                -0.6397660185931882,
                0.6945468988333028,
                -0.2637704245320176
            ],
            [
                -0.6272631439523224,
                0.4213003429792932,
                -0.09025213011921807,
                -0.6509754655457136,
                -0.1944553839728047,
                -0.29456099462496743,
                -0.9732248923676279,
                0.4989243498273348,
                0.9384054610519281,
                0.5909148353877709,
                -0.6856626346355001,
                -0.5726517724277669,
                0.44067473101358146,
                0.39533180956687675,
                0.08758107520483716,
                0.045083094831367854,
                0.46820941533378035,
                -0.5350282704542753,
                0.7626942567856578,
                -0.5922201604502624,
                -0.5842555785248917,
                -0.9853751831709865,
                -0.7765711359997249,
                0.6224310792268224,
                0.6648613492708362,
                0.6028445479832312,
                -0.3399259957309908,
                0.9606233045915822,
                -0.08604330079551081,
                -0.39269382831494193,
                0.16911815477764902,
                0.882747091115003,
                0.6586967277912186,
                -0.5283629498331774,
                -0.8709824118095382
            ],
            [
                0.8740966238303769,
                0.8230809848402165,
                0.5086550969768351,
                0.689954838823853,
                0.478206930317832,
                0.7285479330642435,
                -0.02686479577419143,
                0.05945200839653819,
                -0.4038579113470211,
                -0.688716482955235,
                -0.8338106715702645,
                0.5945880088839706,
                -0.7496740786919209,
                0.4471460792072426,
                -0.07425507108107054,
                0.9255658037926602,
                -0.7789344050344857,
                0.21920381799388444,
                -0.08277083775740057,
                -0.2703060215382269,
                0.06192463692563632,
                0.9959858796568457,
                0.24199206775763038,
                0.7228553699598466,
                0.8616863611032999,
                -0.3984341018648405,
                -0.32313073082616905,
                0.6491392177313542,
                -0.7109715381771371,
                -0.8099738576189017,
                0.06300755105309208,
                -0.12748329326348573,
                -0.5917495169812619,
                0.3327402605821077,
                -0.02602651509739684
            ],
            [
                0.9742900263082828,
                -0.48434799115428384,
                0.5938857759378751,
                -0.11746689794467158,
                0.3044390728822586,
                -0.36324892578930146,
                0.9269016796935368,
                -0.4577960135412722,
                0.8174404105303157,
                0.2292235358971566,
                -0.5272727098365375,
                -0.2001572583665543,
                0.20801280915044673,
                -0.55844808956214,
                0.29858244394445665,
                0.7204711110966049,
                -0.961394910772329,
                -0.9293969523542831,
                -0.1461784134286901,
                0.5259023827322125,
                0.05233580124887083,
                -0.12381374521613875,
                -0.8426808427342307,
                -0.7725441931183565,
                -0.7281952051019613,
                -0.7882380132577187,
                -0.9000653725320045,
                -0.5024746872416255,
                -0.16042535792154622,
                0.9381287382503751,
                -0.47380754901765765,
                -0.1368898297779193,
                0.5072572942293521,
                -0.9589577450260953,
                0.22819777580113065
            ],
            [
                -0.9130413431104083,
                0.43989315350885283,
                0.5243230029391546,
                -0.1663889539482888,
                -0.996746890863365,
                0.7405490105680776,
                0.44911791846506977,
                0.7731585710771982,
                0.30292902147286527,
                0.8528273809612874,
                -0.9615056560326896,
                0.8334297082066064,
                -0.04784237187008222,
                0.35677148786292867,
                0.41697878934465304,
                0.37285464262658286,
                0.5790367256904323,
                0.8191836552307201,
                -0.6759569556204372,
                -0.1807414449202509,
                -0.08341965144385854,
                0.9166117422205147,
                0.03941692145240294,
                -0.6617103825657078,
                -0.903623729814119,
                0.2463263660412911,
                -0.5706111859381837,
                -0.6815239888149403,
                -0.14526115572735288,
                -0.04414379020175563,
                0.20685185135622342,
                -0.25053611892656824,
                0.22347000217597413,
                0.47678694913651287,
                0.30064834512744
            ],
            [
                -0.993046496151927,
                -0.2677277399599589,
                0.46004538742549084,
                -0.4774130896429223,
                0.3061635173975339,
                -0.15334259923172722,
                -0.14860978279825066,
                0.13574078867942285,
                0.9243479308807103,
                0.8155451108974321,
                -0.9616760064874084,
                0.8450750227015098,
                0.6561087313999285,
                0.5263264369148115,
                0.7784832524042111,
                0.5696400326433373,
                -0.3711608464230971,
                0.2238836462264142,
                -0.457933274123145,
                0.6604008411388755,
                -0.043522095246552484,
                0.3326482693589592,
                0.7336151673008053,
                0.8105260806730676,
                -0.3657999077694336,
                0.6606327644387608,
                0.7215382793613987,
                0.5070807739434136,
                0.7162290564000888,
                0.2623483778474449,
                -0.08733400094826482,
                0.24854332577890714,
                0.1605882922260462,
                0.11157689148314587,
                -0.4558982523167645
            ],
            [
                -0.3232558348726886,
                -0.814768068285493,
                0.0731402054642587,
                0.26912008118289177,
                -0.9283318641209362,
                -0.4085340777184494,
                0.33711148130690094,
                -0.6035511727464824,
                0.751937539807104,
                -0.6072384267428785,
                0.20543477340597205,
                -0.49987380127470504,
                -0.4000997180431034,
                -0.8364704628599375,
                -0.5844818147301978,
                0.9824798284189138,
                -0.04009503925351399,
                0.8126825346836728,
                -0.5643052961469728,
                0.21018309062676055,
                -0.340579800636722,
                -0.8814131126839104,
                -0.9644365280151175,
                -0.9618778031667912,
                -0.8815058351692393,
                0.9221189235558047,
                0.8184764558091173,
                -0.0513613424748649,
                -0.13361089286260364,
                -0.24215054424160076,
                0.9943684916536071,
                0.5934655221267426,
                0.8501401404756959,
                -0.11385158098463188,
                0.111455985087211
            ],
            [
                0.15241605740315656,
                0.6871116269658355,
                -0.23732162430530157,
                -0.2906355994126175,
                -0.6722552736567005,
                0.35272239172838016,
                0.7305637434200414,
                0.2201480822570292,
                -0.621322396887652,
                -0.3777554335319304,
                0.5382044856893702,
                0.9868628342348555,
                -0.7493776957476967,
                -0.8648912042224508,
                -0.5073788244951103,
                -0.8141778667666073,
                0.025347520633805853,
                -0.703424908041425,
                0.62066166230896,
                -0.10730945860527741,
                0.5225020061314176,
                -0.6389843370840387,
                -0.26950116527357926,
                0.6286355957961218,
                0.31295360669124483,
                0.05814519862163281,
                -0.5162877736071834,
                -0.6507904629949706,
                0.34265163917129193,
                0.08727092200172804,
                -0.6013826154332054,
                -0.3429906765004662,
                -0.07268247147065843,
                0.9439659840914645,
                0.626966956450639
            ],
            [
                0.8417600787978641,
                0.384051263531654,
                -0.12378568497555809,
                0.6071787175179766,
                0.4743941018124871,
                0.8551503436708632,
                0.9482849256602193,
                -0.15011851750889438,
                0.64224701210231,
                -0.47436059033583855,
                0.5713252523046348,
                0.03496530703069456,
                -0.3752611476185892,
                0.8320471786350092,
                0.04675012220797292,
                -0.10575286536906447,
                -0.12856258690721778,
                0.09780904589142603,
                0.70125875661679,
                -0.8518765260081163,
                0.9053725004226165,
                0.19155380767101216,
                0.45017048976800744,
                -0.7174571976764534,
                -0.5659987149933516,
                0.5670325076036951,
                0.9044087217162005,
                -0.5504046342573152,
                -0.10101388057766036,
                -0.08362844448413664,
                -0.8473525452126107,
                -0.35922248535639634,
                0.31764250486868506,
                0.2350744778220002,
                0.23204148189458196
            ],
            [
                0.3251981827090489,
                0.5897438139429063,
                -0.6548430459590702,
                -0.5307152348890116,
                0.6105005372893164,
                -0.5690554173608802,
                0.15062928276832666,
                -0.1183655669303314,
                -0.37265035937794,
                -0.09980739579583875,
                0.15935951679387905,
                0.6121661776540019,
                -0.2377546819597418,
                -0.6751630912581494,
                -0.9526997444343597,
                -0.6220765583879093,
                -0.6872530327655202,
                -0.39161019096165517,
                0.6575648845135889,
                -0.5510883038680214,
                -0.4719830735525712,
                0.34791993103150776,
                -0.045786366683399526,
                0.3760267401572792,
                -0.7895172315783383,
                0.42589155510466137,
                -0.13756900173359532,
                -0.7037743232903679,
                -0.5454386592206861,
                -0.8997620579143324,
                -0.0218059996545521,
                -0.04292936521461188,
                0.8588791529049049,
                -0.9850124128561684,
                -0.05855859128109553
            ]
        ],
        [
            [
                -0.701214875191351,
                -0.1456954365242824,
                0.07376906653595605,
                -0.9952966934162502,
                0.45137155029711984,
                0.43860432910605085,
                0.15199763034219615,
                0.8101716390399367,
                0.6490190233643713,
                -0.8372177268924657,
                0.3467633792752429,
                -0.3310788986726507,
                0.35081289713747843,
                0.35872236874924757,
                0.6024475669797853,
                -0.41109349860113276,
                -0.5219814501871278,
                0.2270587255856069,
                0.10012719969032502,
                -0.2780661687948176,
                -0.6549106278831618,
                0.78846269121239,
                0.6466513382856645,
                -0.17368159674828587,
                0.8705988859843388,
                0.807471283267678,
                -0.5668671903712907,
                0.11834107453405585,
                0.463534452816716,
                -0.6847625752315925,
                0.17578463771736708,
                -0.4892862492658714,
                0.9598639229181893,
                -0.3387916029724647,
                -0.8580440509609526
            ],
            [
                -0.2400321514131365,
                0.9181258617587684,
                -0.614288022832469,
                0.12332213730090014,
                -0.9772621589678685,
                0.9674624850585467,
                0.013418509117403943,
                -0.03828116427866113,
                -0.8139790138474543,
                0.3167072713938861,
                -0.7977141653760373,
                0.9130354475020772,
                0.9307174612962223,
                0.8020350098864593,
                -0.6156877962768443,
                -0.6025289382685148,
                0.20904831667273016,
                0.3924930863152074,
                0.2902070359553708,
                -0.916742991024295,
                0.11369184058398685,
                -0.2934973011321953,
                -0.5404306469841378,
                0.6283107377509705,
                0.1728243731211978,
                -0.0036704479910847354,
                0.12919618058705296,
                0.6767315376262706,
                -0.5779576679936016,
                -0.4574428113096738,
                0.33146980884511645,
                0.19897983696608046,
                -0.18755887357470824,
                0.2532168810233095,
                0.5131267131111832
            ],
            [
                0.14187035827397154,
                0.750303841343114,
                -0.44616140954084926,
                0.4532831530352901,
                -0.18347770607322755,
                0.47786172008288497,
                0.3871207094609461,
                0.1509284359042744,
                -0.1961459634226823,
                0.939797673417043,
                -0.11724105097772841,
                0.7670895184699775,
                0.28526417706755036,
                -0.012958484308556839,
                -0.6928054982978056,
                0.6204983160180662,
                0.8830049352935079,
                -0.29426598219294986,
                -0.20294803258596916,
                0.7740249601706091,
                -0.9472819556546954,
                0.6542621693636079,
                -0.9419601380032214,
                0.1667480070895917,
                0.3468563810405203,
                -0.13649200245271675,
                0.9952738308425622,
                0.05539008099447251,
                0.3052509201206588,
                -0.11747867115691735,
                -0.8125479766032222,
                0.6885757640135961,
                0.19153820144507572,
                -0.7147158309150945,
                -0.19127995788881114
            ]
        ]
    ]
}