{
    "input_size": 10,
    "output_size": 10,
    "num_layers": 3,
    "neurons_per_layer": 52,
    "fitness": 96.34341835609334,
    "weights": [
        [
            [
                0.15684195177766536,
                -0.0466993914873548,
                -0.26314673162824387,
                0.4705690394716153,
                0.6549481061739915,
                -0.08724028970017628,
                0.030060800299034796,
                0.3258051901429013,
                0.6421232526242151,
                -0.3025403482440958
            ],
            [
                0.7283405785655148,
                0.2958938816010279,
                0.5164032119168622,
                0.009179138014615562,
                0.043331794695704806,
                -0.46346696315626335,
                -0.7925947852299653,
                -0.943112474075092,
                0.4396987408188022,
                0.5997320048125971
            ],
            [
                -0.8580753557458238,
                -0.800537727355517,
                0.745245343613528,
                0.7929149652899963,
                -0.10621390495744731,
                0.27428800345685533,
                -0.7759526617704395,
                0.4348825035101238,
                -0.7230333476347983,
                -0.644229796992327
            ],
            [
                0.4392042212774705,
                -0.6619065199757672,
                -0.5227182271083843,
                0.15456054236920003,
                0.9078485648152246,
                0.44508361332922,
                -0.03515221310331662,
                -0.4263623301730468,
                -0.9379381556066777,
                0.3588159629023653
            ],
            [
                0.6374011851369936,
                0.24052804313125753,
                0.4506092125957639,
                0.8546866917169786,
                0.43573562141265243,
                0.8731746026402634,
                -0.6444032369728903,
                -0.7014504622947357,
                0.16993458605633904,
                0.21726559146884483
            ],
            [
                0.6505128007917762,
                -0.258580570463226,
                0.5662219274026921,
                0.7973836467564379,
                0.68661277418737,
                -0.41388650375725544,
                -0.24889601709861475,
                -0.22879765566302424,
                -0.04255615223505571,
                0.9575062584260221
            ],
            [
                0.25323561780243975,
                -0.084913653378484,
                0.14917789038245033,
                -0.20868013894478277,
                0.7437511300074604,
                -0.8061516782815359,
                0.4848938162422711,
                0.8185380164906075,
                0.9740658656059475,
                -0.4396176096101938
            ],
            [
                -0.9873457994521513,
                -0.39057051799928866,
                0.8695485764388526,
                0.6592051244970007,
                0.6969031592071937,
                -0.17587931759032416,
                0.4746375130731513,
                -0.5803599823654866,
                -0.5061020033896688,
                -0.18498501962616687
            ],
            [
                -0.6219128697545033,
                0.6770303276325529,
                0.3507687298386566,
                -0.348873802496547,
                0.6942228144259894,
                -0.40367673683809535,
                0.560510736490178,
                -0.9101728401595433,
                0.9458233595507548,
                0.9886749942188735
            ],
            [
                0.3196747077444073,
                0.34563412252253256,
                0.7439301733563013,
                0.04826706398695135,
                0.45694020487552556,
                0.26989122995309245,
                -0.26433279350929184,
                -0.8469676491074749,
                0.005400401411392863,
                -0.06666947092363085
            ],
            [
                -0.20995808349238798,
                0.46238238900671913,
                0.5979508311109292,
                0.39552255136023495,
                -0.13135659308091774,
                0.7821965012076124,
                0.595310254919388,
                0.047182528605401286,
                -0.7089393124690568,
                0.01789382744843393
            ],
            [
                -0.3340689713776863,
                0.5803633506410404,
                -0.4607610754928799,
                -0.849692675252743,
                -0.9618854866002327,
                -0.9035184976021382,
                -0.2842785012152742,
                -0.38457440848116886,
                0.16027493729063846,
                0.6569645701711186
            ],
            [
                0.6460465264783413,
                0.9749820535241398,
                -0.8993799136095308,
                -0.6078035403669213,
                0.9604685632778398,
                -0.9836801354059381,
                -0.6081249308381791,
                0.6852066301748629,
                0.04853002404665152,
                0.6363419748007899
            ],
            [
                0.25799166106100446,
                0.36524481899407757,
                0.9245714365694562,
                0.16476335778757378,
                -0.8829961934781037,
                0.64811767955064,
                -0.4207303185894986,
                -0.6422637364056545,
                -0.7028432239230415,
                -0.18668261964510524
            ],
            [
                -0.8577832295982315,
                -0.2888577339817995,
                -0.009029612164155765,
                0.7587439484528302,
                -0.9178446516294472,
                0.20391445390914398,
                -0.9322885831080694,
                0.01716352398592491,
                -0.9206485617689875,
                0.5696393916259477
            ],
            [
                0.422925808155294,
                -0.08230776075784041,
                -0.3493497478245433,
                0.12921051671488848,
                0.17102319138916489,
                -0.6649232633645765,
                -0.06889221366564069,
                0.7667753972610467,
                -0.9379250759469895,
                -0.6134667951846617
            ],
            [
                -0.6108105692367383,
                0.06782872810708729,
                0.20412046702917053,
                -0.34227879908989167,
                -0.5096779144155528,
                0.647075607636366,
                0.2719797157530266,
                -0.11470918553162335,
                0.5546109031572801,
                0.39566631532699414
            ],
            [
                -0.1268783528042965,
                0.9055222008381785,
                -0.824415470535933,
                -0.3082425459193989,
                -0.8918992222412041,
                0.48425724293061245,
                0.26879244609624475,
                -0.23727106832397316,
                0.8418117383533519,
                -0.9315172404866046
            ],
            [
                0.5210295733410124,
                -0.3872464441657859,
                0.636992084999511,
                0.7775952083894666,
                0.7748440172962017,
                0.7807882279585556,
                0.15011534727705977,
                0.5484890302833134,
                -0.7757774188308082,
                0.6695567632244013
            ],
            [
                0.7178973241497977,
                -0.4686827960512243,
                -0.8552279975221362,
                0.5861812024292274,
                -0.40067114439664,
                0.58666510689915,
                -0.8100949778683029,
                -0.9266159796975748,
                0.6576236964065814,
                -0.8484569938535971
            ],
            [
                0.5566729052284551,
                -0.28338481501881096,
                -0.17432453407809145,
                0.9501017946804411,
                -0.08833095804140068,
                -0.5114840296621568,
                -0.21487584307966445,
                0.9336352015503135,
                0.6473581290793344,
                0.03362184939042301
            ],
            [
                -0.502277144384041,
                -0.5574183275982993,
                0.3663808816176275,
                -0.8392831303196899,
                -0.1655776619411793,
                -0.5742232037371575,
                0.020683341614117223,
                0.015594936483741106,
                0.8257737432480763,
                0.7341576313432345
            ],
            [
                0.0858557520676344,
                -0.048052032579614545,
                0.5863089409166029,
                0.9523815843458692,
                0.19207514477538257,
                0.07052542718900168,
                -0.6798118881559074,
                0.2581400869912647,
                -0.3602261725730953,
                0.8353431416752628
            ],
            [
                0.8856333850666791,
                -0.16136911769244722,
                0.7279372443353544,
                -0.23612962935892767,
                -0.26788438267922454,
                0.1523107020210861,
                -0.856845927673143,
                0.46976675679630087,
                0.10613026606210307,
                -0.0655037590258567
            ],
            [
                -0.3328882882133435,
                0.1109778136429922,
                0.372806862746593,
                -0.23403065339987839,
                0.5638266643063139,
                0.5026054801236362,
                -0.27369187372225445,
                -0.8175943099731242,
                -0.995917456120043,
                0.8446009667982133
            ],
            [
                -0.21266039537047798,
                -0.6248864935410303,
                0.8041480863186952,
                -0.6391339243807383,
                0.02372122939338328,
                -0.3232327872945384,
                -0.749322834742028,
                0.6922142396352411,
                0.07862302680844535,
                0.6066386678191453
            ],
            [
                0.7509633228007659,
                0.9174792846943896,
                0.30573834412467193,
                0.03592441615342823,
                0.3417707349463066,
                0.21211907159927912,
                0.420859857596813,
                -0.2566577244463206,
                -0.6468918532204819,
                -0.39902457673755753
            ],
            [
                0.8616665143343969,
                -0.5253923283534414,
                0.9306808751145921,
                -0.6070982270297711,
                -0.5775674532516619,
                0.7222293395827912,
                0.8390127611243463,
                -0.7542675367107878,
                -0.9403593441087796,
                0.7620362251382005
            ],
            [
                0.07437125118255383,
                -0.6660359647211835,
                -0.28120883761796267,
                -0.1421276290540825,
                0.27546154536955125,
                0.9095251612579174,
                0.11780672687612936,
                0.7003290429262814,
                -0.7218456392834904,
                -0.3436835291168976
            ],
            [
                -0.02423189860816377,
                0.3447252968357135,
                -0.18285275331576445,
                -0.03666547641271345,
                0.3516211791405566,
                -0.48914075805406565,
                -0.8267072035005611,
                -0.10881040189519053,
                -0.10763439268522101,
                -0.5510151752153654
            ],
            [
                0.5420913466166226,
                0.9721816412566098,
                0.3747278339451443,
                -0.8549599042162921,
                -0.6279586433213691,
                -0.9049066302101523,
                0.7508306832584428,
                -0.05849886384634129,
                -0.05609162849144078,
                0.6742394989555791
            ],
            [
                -0.9885210507312516,
                0.937107784476588,
                0.0420949751238644,
                -0.27834316169211704,
                -0.41634670337769153,
                -0.6663872531610509,
                0.41996376302161176,
                0.35355105658296027,
                0.309740230974223,
                0.18854126125313098
            ],
            [
                -0.7694206333772025,
                0.3023924792913686,
                0.8486807686373046,
                0.19098354904888248,
                -0.7818906356642601,
                -0.024530891150198686,
                0.3315419370256103,
                0.5805904489504374,
                -0.2237828406996094,
                0.25691472663996984
            ],
            [
                0.9182747707487848,
                -0.6992913628563497,
                0.8910659087832304,
                0.560818818860187,
                -0.30961076441668345,
                -0.27785314350639556,
                0.5366015506202586,
                -0.2376611843124421,
                -0.5567217515138712,
                0.004411925587143539
            ],
            [
                0.40587913093802386,
                -0.35276536407740444,
                0.3555293000780142,
                -0.08963772597546171,
                0.045840882915703096,
                -0.8396543691002967,
                -0.9603509643154422,
                -0.7727471990993982,
                -0.6297703231819511,
                0.6292114931979405
            ],
            [
                -0.8944343901746081,
                0.6444999635388262,
                -0.8188465048332003,
                -0.26349416306627327,
                -0.029979756995671902,
                0.7713090546699821,
                0.5644257840511966,
                -0.7283742391117569,
                -0.20569648709424304,
                0.17754677071530844
            ],
            [
                -0.5505228796317116,
                0.7778856372733358,
                -0.8773477460768306,
                0.8095444479369864,
                -0.2763603936537977,
                -0.35612188051004634,
                -0.6430852679102894,
                0.010243622234310301,
                -0.44153045640354627,
                -0.6415206628286276
            ],
            [
                -0.4213421466320819,
                -0.9759835088542335,
                0.6179641825992535,
                -0.011096417422681304,
                -0.1540198975336846,
                -0.8344681578379292,
                -0.49295142800535796,
                -0.9160753628518818,
                -0.8975664554430851,
                0.07103114174946956
            ],
            [
                -0.5420663360318394,
                -0.026613160423569537,
                -0.7700903925331699,
                -0.7393333752256497,
                0.6503135199688077,
                -0.1295898751903053,
                -0.061933407335225565,
                -0.3203868461510828,
                0.4251032514981694,
                -0.9018124394798419
            ],
            [
                0.24988919858117353,
                0.23030855391223737,
                0.9882589305962781,
                0.7814790655743591,
                0.7765359655012953,
                0.9410426264493881,
                0.0665689049145155,
                -0.12499380816471062,
                0.7035998287822116,
                0.6138275689427968
            ],
            [
                0.9361035920045628,
                0.08968927947665528,
                -0.13174569953189597,
                0.7526326036117892,
                -0.617273357212476,
                -0.37387565085052676,
                0.19388624408611577,
                -0.8955460729750702,
                0.8309324852706259,
                -0.53727912557058
            ],
            [
                0.9660437992385733,
                0.14487414542649812,
                0.32847543353158826,
                0.3789967356887809,
                0.6229160291380025,
                0.972377254697919,
                0.378633700946881,
                -0.7674433756467602,
                -0.1322721465330201,
                0.1050764707460814
            ],
            [
                -0.6564209214200198,
                0.9913334135235625,
                -0.4511781747287418,
                -0.34455123713200964,
                -0.06657256694910618,
                0.22581210591368972,
                -0.30962186513815393,
                0.20749566988544244,
                -0.8133300246280117,
                -0.9601975832882421
            ],
            [
                -0.8213993501992929,
                -0.19690668930820943,
                0.7083343623411456,
                0.4279585686709588,
                0.6311222837875048,
                -0.5643084332944064,
                0.15178786996975036,
                0.3494171684839533,
                0.9081022002720665,
                -0.7498120099625898
            ],
            [
                -0.43354948746134503,
                0.6986046211830355,
                -0.09986405098772932,
                0.7961901181704809,
                -0.9175013534686518,
                -0.5027167824501975,
                0.39137908094000307,
                0.16119058578887402,
                0.6608728512078985,
                0.6519592198116817
            ],
            [
                -0.8922960262124842,
                -0.042199268937941126,
                0.4432717232838377,
                0.8053424608603361,
                0.7106058607190981,
                0.4584915921105597,
                0.10212472056631516,
                0.11161205948780273,
                -0.5010599819242985,
                0.37775435824984727
            ],
            [
                0.21377422596037565,
                0.37168519870561756,
                0.06393327559746376,
                0.56204330672932,
                0.5950208601788778,
                -0.655607659358413,
                0.7957175047030409,
                0.7490785378174083,
                -0.25029137719262073,
                -0.13220667677668807
            ],
            [
                0.26883587921924357,
                -0.6150481099554066,
                0.9066844540635242,
                0.6467143146961107,
                0.6010252281869086,
                -0.23754539854491052,
                0.5178466423614858,
                -0.7448420049637889,
                -0.18066178914854825,
                0.29959635942391305
            ],
            [
                0.8795269464640976,
                -0.47435277121876895,
                0.28095943137890034,
                0.8044409061709861,
                0.7358413180322756,
                -0.8143458832499937,
                -0.30719318405982077,
                -0.4793752070548023,
                0.6079395013617495,
                -0.12555413298805584
            ],
            [
                -0.6555567607969415,
                0.5056155835680438,
                0.8095461155155157,
                0.0701811711637963,
                -0.8306684604782986,
                -0.5163782634973819,
                0.3173514723832649,
                -0.6143684842646027,
                -0.03652381181471043,
                -0.2747427326926619
            ],
            [
                0.12010401504775325,
                0.33419452982963893,
                -0.34384451736888844,
                -0.17881358523667412,
                -0.13251941293445824,
                0.6496946058283173,
                -0.41775485189372596,
                -0.1631438202386759,
                -0.7626443109407399,
                -0.7886082664424494
            ],
            [
                -0.513824377465476,
                -0.23772438600161072,
                0.8364924194508416,
                -0.36796818293544264,
                -0.481280324854396,
                -0.9310380735226729,
                -0.33541583864102376,
                0.41382521838292896,
                -0.22037681912602647,
                0.22410310765770936
            ]
        ],
        [
            [
                -0.39829564576231924,
                -0.8487104746867884,
                0.8223783987962017,
                -0.6989338728479926,
                0.9553033976643612,
                0.0543087862097813,
                0.9565776148432117,
                0.3329666213964457,
                0.201823872949757,
                0.2427882941002062,
                0.6712343663367166,
                -0.4056664414067528,
                -0.16609122268807042,
                0.33813390611109795,
                0.34556502634003783,
                -0.6326857205793566,
                0.24111384840377248,
                0.22252111171968258,
                -0.6014027741392216,
                -0.03179528460845771,
                0.1893947513593981,
                -0.09560358207079744,
                -0.9365395252445157,
                0.47465943362258933,
                -0.03595959885302191,
                -0.7634604366794873,
                0.5906589180251296,
                -0.45752218909917963,
                -0.48803258375163727,
                0.5052171476764122,
                0.14479133153779844,
                -0.7968449283587529,
                0.7068402924820958,
                -0.650663130741566,
                -0.06472306355264434,
                0.9642930086710697,
                -0.2960565383222826,
                -0.5049339143961491,
                -0.38179253931633506,
                0.16124893391807982,
                -0.04005279546146667,
                -0.7941708416152535,
                -0.5919891857153072,
                0.011014775987624237,
                0.6608718307580133,
                0.6281514543564675,
                -0.15359789822541914,
                -0.6063774199058609,
                0.03796184058696683,
                0.06285055325182753,
                0.20281972556478323,
                0.4750582487057071
            ],
            [
                -0.39954734744520204,
                0.9973448329394188,
                0.27858346033807324,
                0.8004871690751008,
                0.6467548741225231,
                0.29282566305423097,
                -0.13763298158492687,
                -0.6164207468642866,
                -0.37664658595197453,
                -0.6764179554988123,
                -0.8889118540680594,
                -0.49844007646730826,
                -0.2818391145778101,
                0.8387740488633009,
                -0.7585646009939058,
                -0.5071359082923237,
                0.4541076368944339,
                -0.22982892657628318,
                0.6284213537542997,
                0.21939268849406113,
                -0.389397988028074,
                -0.8946141975265878,
                0.5123661981542369,
                0.524543795370942,
                -0.6630872346540633,
                0.207000765053734,
                0.6564410567038474,
                -0.24283766244409777,
                0.7249280331212153,
                0.1640074418706603,
                -0.7174186424078577,
                0.9109047846866398,
                0.3806426117623831,
                0.6355987033404051,
                -0.4340676908152439,
                0.2510106319695298,
                0.7898810257441198,
                -0.9836476681141253,
                0.18484536323244338,
                0.9757612219287544,
                0.03750283408484911,
                -0.48311623409232185,
                0.6129092861059591,
                0.1916817108202331,
                -0.8433009620613048,
                -0.22379289430658256,
                0.1753886779192977,
                0.7115958172372134,
                -0.939182410487758,
                -0.7813030929520783,
                0.38972924351370075,
                -0.30356916559183356
            ],
            [
                0.9404729139898231,
                0.33444218727836494,
                0.14518821510757074,
                -0.051403430462614974,
                0.15420411919491617,
                0.5261260735480768,
                -0.06312976995357311,
                0.41074570615124184,
                -0.07123308778505466,
                0.04212964875731795,
                0.22118225406857928,
                0.04422892513085297,
                0.907545058249918,
                0.7387069623179927,
                0.9349136097975057,
                -0.5106045291931525,
                -0.8306575756783054,
                0.17433621556899048,
                -0.8668250185971633,
                -0.09480163049719614,
                -0.8554749048268411,
                0.7764006251150088,
                -0.44943819586156275,
                -0.43539964692048905,
                -0.45460281794418456,
                -0.9640000124909858,
                -0.7482466856900996,
                -0.2488106766791418,
                -0.8290943968636031,
                -0.5387757711787637,
                -0.4412720397705523,
                -0.7994338818101812,
                0.9456063704234934,
                -0.7361917294048754,
                0.13472437389189995,
                -0.7500578472325619,
                0.9979521450616582,
                0.225514604882594,
                -0.7100674092410302,
                0.4752915078873632,
                0.6239430546582552,
                0.7049051867594851,
                0.01343025654449348,
                -0.37519365843975394,
                0.4230239965550775,
                0.49000821024021635,
                -0.655982409966096,
                0.8723949801301065,
                0.32833356906584,
                0.37751546815025216,
                0.2509783723144683,
                -0.5086901621070468
            ],
            [
                -0.575960337600973,
                -0.812314417960772,
                -0.833976336154828,
                -0.14237938079525048,
                0.8649774452685337,
                0.7751242058607046,
                0.753216644132662,
                0.15401989639385905,
                -0.5127020402548812,
                0.722465338343034,
                -0.488128157764085,
                -0.7941179792502546,
                0.37527289359275584,
                0.23404617785837023,
                0.47534821284632156,
                -0.29536428093945966,
                -0.8066962267281128,
                -0.8564828522528358,
                -0.8673225027068787,
                -0.6617593661469221,
                -0.5285679503949599,
                -0.9804051440614685,
                0.2597439874785552,
                -0.18780700382349824,
                0.8603633700818207,
                -0.08256310500990227,
                0.2119047747260585,
                -0.38640610817838983,
                0.17723181903650875,
                -0.6332028844336979,
                -0.9207829929571283,
                0.42739362390660696,
                -0.09340755216043117,
                -0.2518783437093748,
                0.6628931800984255,
                0.4826549553752624,
                -0.3035510182323693,
                0.4288037396009736,
                0.5123906447196191,
                -0.32323943253719856,
                0.31279338482243535,
                0.5006673483557806,
                -0.9839898535972393,
                0.5873376884542894,
                0.47803756567623323,
                0.33976699099147356,
                0.6653046767824953,
                0.5281892041225251,
                -0.013730670089314945,
                0.1817541469111672,
                -0.9100821368857999,
                -0.6755513774298407
            ],
            [
                0.8012372070658342,
                -0.14334939103014843,
                0.1409079923008929,
                0.9597971500476878,
                0.15345757226402545,
                0.847896835073932,
                -0.37726240438489156,
                -0.8198056184395031,
                0.5366551999759719,
                -0.23495098001488213,
                -0.8381344497595331,
                0.7007860427245707,
                0.5600159315134106,
                -0.11605822252288167,
                0.1328385307600375,
                0.45540211155951904,
                -0.7724803463819896,
                -0.32300006836131234,
                -0.004162944810569336,
                -0.32906284039124856,
                -0.2594374758097362,
                0.020587190914258313,
                0.36326920076138003,
                -0.619268601717577,
                0.06151535241125994,
                0.662096991451878,
                0.23189422196833798,
                0.4767794044079605,
                0.8542640052025565,
                -0.6131634552425309,
                -0.4065341195426926,
                0.7496187730274959,
                0.695013594513181,
                0.5145776867524066,
                0.6252129750236832,
                0.18829668037193148,
                -0.6225732713181034,
                -0.38864447561088356,
                -0.5760714348426608,
                0.5728159363063547,
                0.6361925355655711,
                0.22621070076174687,
                -0.352980154132128,
                -0.0860633258637089,
                -0.3103460008206973,
                -0.8178698896590935,
                0.4003892765118622,
                -0.30707480313076463,
                0.29144288272563856,
                -0.1004512413214298,
                0.20383842646656447,
                0.8853002172422944
            ],
            [
                -0.18734340614692235,
                -0.13080849482099244,
                0.6703603913411829,
                -0.7633921134660038,
                -0.8434164608111798,
                0.9740119956545314,
                0.276551595625425,
                -0.4796533013371935,
                0.28622931072680324,
                -0.7467987083540837,
                -0.10978536835323927,
                0.06679940086302305,
                -0.5269784810696991,
                0.27298888846637914,
                -0.6773549907080376,
                -0.9553306142310907,
                0.7625909449960095,
                0.014021416607015835,
                -0.2676822978555229,
                -0.6155390520855424,
                0.3928747155190244,
                0.7042426145770737,
                -0.5941851860388601,
                0.36415451118239606,
                -0.9513073116844046,
                0.6835498019162636,
                -0.21581062676234786,
                -0.43165402549297505,
                -0.8452274844569359,
                -0.806082580103892,
                0.9090283543358018,
                -0.5850236385955387,
                0.850567423149934,
                0.1763603845239765,
                0.7321039568477774,
                0.3657090741176321,
                -0.649121514144142,
                -0.7993897895349014,
                0.5630457470594725,
                -0.3043183172140087,
                -0.3598792099998174,
                -0.41795087291072996,
                0.4853112252765712,
                -0.22848788048144475,
                -0.32872360910527565,
                0.8557789344154978,
                -0.5018961357832423,
                -0.8218617777585868,
                -0.3819376073731402,
                -0.25265921744389974,
                0.553744880485892,
                0.24247943567930252
            ],
            [
                -0.9099717175826267,
                -0.6095965367429974,
                -0.8421745399263647,
                0.7260970095575336,
                -0.3539017298040268,
                -0.5396976832240217,
                0.7398986870882678,
                0.4268451455849054,
                0.01007907611949932,
                0.5647251385824623,
                -0.22398078874020366,
                -0.9921592889790725,
                -0.7764485278697273,
                -0.859569724355904,
                0.6232372146984919,
                -0.3472250285124878,
                0.8560277124115265,
                -0.9756550384209202,
                0.4389689061251192,
                -0.6748010946816891,
                0.12386043964544724,
                0.4083712767713734,
                0.8110039174501025,
                -0.12688307548941857,
                -0.054122213705365185,
                -0.2814724909798796,
                0.579525621566497,
                0.621638572185204,
                -0.37220767190387627,
                0.01841751133204883,
                0.39034789733050745,
                0.4673022143716212,
                -0.7800858546548168,
                0.7594049312806079,
                0.9832059485392493,
                0.8877226231467348,
                0.07157036747069268,
                0.9783924770113921,
                0.8063120917323496,
                0.5122537264343168,
                -0.7927388301427181,
                0.8590798535848005,
                0.16240142488029807,
                -0.8584649731226133,
                0.46835070938033674,
                -0.8167825047673551,
                -0.8335519219589123,
                -0.4992320731255002,
                0.7996983519104692,
                -0.0964597432968608,
                0.5646627227670715,
                -0.4608409933622546
            ],
            [
                0.38918839756635326,
                -0.9142982036658898,
                -0.2941734866167214,
                -0.7266365607615284,
                -0.29332775789073584,
                -0.9300421092699465,
                0.9184243027292327,
                0.002912599699736562,
                0.7914942106455718,
                0.7657279178155671,
                0.3672631083135067,
                -0.14840887135210057,
                0.6699064879540637,
                -0.41027551079474733,
                -0.9214526880008689,
                -0.6199249037226406,
                0.8341720347565111,
                -0.6768066528386769,
                0.9725665623091728,
                -0.25885504064348486,
                -0.7708176764351367,
                0.8071050053410638,
                0.24085428653563135,
                0.8388835506213868,
                0.5499524616586366,
                0.7194959320131515,
                0.34706755486579577,
                -0.7644535498646658,
                -0.04200463437183943,
                -0.5299692200410444,
                0.5503565233996428,
                -0.23442734491862094,
                -0.4080915010188715,
                0.39808992490646355,
                0.5820185723138078,
                0.5858862786429988,
                0.830941373665169,
                0.6846966815478204,
                -0.5652722214251964,
                0.8464373201407456,
                0.15786602566145214,
                -0.2059422393011261,
                -0.7534845132205743,
                0.29428531435829397,
                -0.5731198732847931,
                -0.46717741198965546,
                0.1904166368283915,
                -0.6801811802552458,
                -0.016884008524806093,
                -0.294636626735999,
                0.623970192578704,
                -0.07302363340527829
            ],
            [
                -0.17334015606058673,
                -0.37878948284717073,
                -0.3384640763461264,
                0.9047399831424823,
                0.5820850781779978,
                0.03545310112889566,
                -0.8001993660698719,
                -0.4404523558086979,
                -0.9135193161773159,
                0.6795300008886946,
                0.7732058711788066,
                -0.59440825745303,
                0.9798864391879438,
                -0.039599112212029386,
                0.2120014197430351,
                -0.370498181791749,
                0.29479392797384096,
                -0.5257727459341792,
                -0.620865017819141,
                0.7451923796469402,
                0.9786884931091697,
                0.42504832042187934,
                -0.48032998557220274,
                -0.06067438363537647,
                0.1516329611210514,
                -0.44964368790296727,
                0.3203925894110762,
                -0.26978074398343965,
                0.8709453962958889,
                -0.40080369206898014,
                -0.33447119688216964,
                0.5589222020786351,
                0.19875207960438757,
                0.23327640419540097,
                0.5968914565199064,
                0.33795205557504926,
                0.9976753740454396,
                0.5906113602548744,
                -0.16915196864416426,
                0.5543416839083721,
                -0.5469351417145867,
                0.10282658388300381,
                -0.4472325623735589,
                -0.7604577184329506,
                0.8079130545845448,
                0.6959627715628194,
                -0.7238892126420837,
                0.44281010024705636,
                0.5330974376686262,
                0.7963191174840658,
                0.9815309260354297,
                -0.5501391090935446
            ],
            [
                -0.8304070014143792,
                0.5250927425428986,
                -0.30393086730505314,
                -0.22607625196457248,
                0.8840933466506236,
                0.3976187264162687,
                0.2617712044071754,
                -0.3505478104866999,
                -0.5349345996686687,
                -0.7077077348159435,
                -0.011606080393675944,
                -0.47861018701464575,
                -0.1904661820078173,
                -0.9669277028019274,
                -0.346561046883042,
                -0.22215703115769858,
                0.5746436042675878,
                -0.8198503302308104,
                -0.27875480242009365,
                0.05254561133892177,
                0.28363424104542334,
                0.5889575577155401,
                -0.19566299994819158,
                -0.11142490397100202,
                0.4156566376615378,
                -0.82872970403492,
                0.37350119113698677,
                -0.5106651221290879,
                0.7354345732042964,
                -0.9664872948898984,
                0.9897578823142064,
                -0.407768922364629,
                0.0177934301687801,
                -0.8158398491866705,
                0.0027825553312206264,
                0.2891410706249018,
                -0.37182817022045445,
                0.06141952168140086,
                0.2520190364953223,
                0.22293620602373188,
                0.976781891302267,
                0.5716121424336269,
                0.1768312129783569,
                -0.9401276940893015,
                -0.6081339496943052,
                -0.6154317827937583,
                0.36674946269568554,
                0.3932342022250179,
                0.7818148060290082,
                0.22582863420879562,
                -0.061627342464918744,
                -0.8448078361002482
            ],
            [
                -0.19749225381747082,
                -0.29461449314979027,
                -0.9777374900818179,
                0.36281207150904504,
                0.5742164615110836,
                0.4409980703593084,
                -0.24647820624030903,
                0.2665752133678647,
                0.12560889343725368,
                0.5442869985400585,
                -0.5363935216700919,
                0.16928796076714225,
                -0.1735902518261465,
                0.17150779649938563,
                -0.5969890381187575,
                0.7589637195850416,
                0.4881401188789045,
                -0.07963303182542414,
                0.5440898098984568,
                0.8547550503993229,
                -0.08366199678592268,
                -0.9585584383497776,
                -0.804554391692436,
                -0.21813798397254192,
                -0.6171949742163683,
                -0.20434248749109662,
                0.2859158172418168,
                -0.576945427098257,
                0.7223746902951815,
                0.4261403573918616,
                -0.7194362840090063,
                -0.03532323745830057,
                0.05626563436798904,
                0.03315353423707457,
                -0.2956177278430141,
                0.27295102153819273,
                -0.46560970704295457,
                -0.27363227410635726,
                -0.1350648510054675,
                -0.2883657590996507,
                0.014900234238963472,
                -0.6326137972817234,
                0.9722966214661302,
                0.8916202832447075,
                0.0803616783384078,
                -0.5947350037720502,
                0.07960714692907245,
                -0.41110164732082266,
                -0.9566130414757426,
                0.02286308482451771,
                0.7271026582844864,
                -0.8332367047146552
            ],
            [
                -0.164217869330747,
                0.8075635324325994,
                0.8113222994573985,
                -0.49593294661753506,
                0.2447678981731216,
                -0.5678086397337008,
                0.7716014001038034,
                0.03980326851783755,
                0.6599763008620547,
                0.05828255802614413,
                -0.3574037614355545,
                0.3012887428138946,
                -0.08042986746425673,
                0.302400820854946,
                0.035361534896964475,
                -0.11569242203717978,
                0.7088851873876187,
                -0.17382460793585963,
                0.8278183833260815,
                0.6904715504530987,
                -0.7789712350964106,
                -0.6895926682196825,
                -0.8547431827177672,
                -0.9477236106147238,
                0.043121099190747136,
                -0.9488538838092591,
                0.5758888494466257,
                -0.22956313728188182,
                -0.9522553445712529,
                0.39581165160509,
                0.22476575699729429,
                0.564760820936391,
                -0.5744032465761122,
                0.06936109265396806,
                0.3293248611636139,
                -0.1342334590380494,
                -0.7475616530713733,
                0.9321083586886711,
                -0.8361882529866489,
                0.7795057093670064,
                0.948969110404946,
                -0.053484948589281656,
                -0.5906842524227442,
                0.7984545282555122,
                0.9941074554683658,
                0.4739520990722945,
                -0.795675652584557,
                0.5285862847145826,
                0.22518321485787518,
                0.8671785951293611,
                0.649343161773239,
                -0.7593759564492377
            ],
            [
                0.6934847723203226,
                -0.09597499837777046,
                0.684283602338206,
                -0.4246008857572894,
                -0.8437461171005198,
                -0.3025398222886444,
                0.8963773400466986,
                0.5526030971354581,
                0.8687401159339718,
                -0.5466284009789524,
                0.4115136399810877,
                0.4601934222698434,
                0.3237694117004266,
                0.7791993220077065,
                -0.4420468237444426,
                -0.5808694284862683,
                0.9275136329242892,
                -0.15601513823687574,
                0.7073441765382746,
                0.4361670801482642,
                -0.6093748934355276,
                -0.7856312001787729,
                0.2771755074399711,
                -0.6118989660753571,
                0.9909779053345378,
                0.2904547498169616,
                0.053622040797817405,
                -0.07790797474731548,
                -0.3330287367077305,
                0.6842602646423834,
                0.4301600644535577,
                -0.4524935865500461,
                0.893587599117553,
                0.9121952378015927,
                -0.004886465400470552,
                0.12985052676960263,
                0.8874061245135434,
                0.045031701316747386,
                0.15683110659654131,
                -0.5683239116287218,
                0.48104289293793134,
                -0.4903264240973326,
                -0.349299830250414,
                0.6721155204126006,
                -0.2481904698433428,
                0.6496107325883527,
                0.6783879801097863,
                0.549891422531054,
                0.7027983096745212,
                -0.6088116267376382,
                0.2868343687150601,
                -0.09862646905449379
            ],
            [
                -0.6541127970068938,
                0.693194457858338,
                0.5927605657212653,
                -0.5091167263500498,
                0.7031925196841513,
                -0.6834118988353799,
                0.08086973185157609,
                -0.9950938559254545,
                -0.9478805218015303,
                -0.8916469427925566,
                0.5869659311253586,
                -0.5917531238414131,
                0.18770403952978088,
                0.15325710616237465,
                -0.332841610754282,
                0.1613557608825058,
                -0.9757972448317731,
                -0.3062244782228001,
                -0.9712647986769445,
                -0.5958819815429655,
                0.454557620511018,
                -0.9092933311060012,
                0.23507866257937882,
                -0.07831879083347615,
                -0.892730322088215,
                0.8198384761794777,
                -0.059316634184508166,
                0.37242528486391113,
                0.8740149398039343,
                0.6536533565091764,
                0.9840467465049834,
                -0.4122781717041797,
                -0.2384569251825548,
                0.8784034346173808,
                -0.15564702004073694,
                -0.8200230031511668,
                0.9793064788473256,
                -0.5450327815163685,
                -0.2106465044358512,
                -0.8376390689001691,
                -0.9472946456974292,
                -0.6676506002826972,
                0.3353396512186373,
                0.01815912891816085,
                0.8768291463937834,
                -0.6327337600687051,
                0.43218411429091863,
                -0.5555686435393405,
                0.5596794339356543,
                0.0175436286195223,
                -0.805435145879092,
                -0.7256702194929816
            ],
            [
                -0.9023941844621004,
                -0.9601618245036236,
                -0.12351027656144664,
                0.9442363827759455,
                0.9562257773118321,
                -0.6805265919060313,
                0.23902610173623495,
                0.07808740362577482,
                -0.6285770934123656,
                -0.6485605407085475,
                -0.35836272674217207,
                0.22299517505183553,
                0.6296478400977974,
                0.4492927491502794,
                -0.42214252342662983,
                0.3885514479299994,
                0.7587766825062059,
                -0.7618888987747789,
                -0.6553804307653546,
                -0.8636428372728777,
                0.7244471740844554,
                0.29394151483824027,
                -0.8337482805922785,
                -0.6693428505225041,
                -0.17625916180784595,
                0.6859454118505115,
                0.2797119089870126,
                -0.27030669446704514,
                0.35569741627837437,
                -0.9644495986866457,
                -0.1652813547443852,
                -0.40437562584895703,
                -0.5450040179673972,
                0.22506101745499651,
                -0.4368804715116277,
                -0.5863805277686485,
                -0.08104920481062439,
                -0.26714533424635545,
                0.6449130780027459,
                0.3020690255627656,
                -0.9277897108475455,
                0.988637348985888,
                0.5919989880445078,
                -0.6260250933521991,
                -0.028710969301906974,
                0.4412994561969219,
                -0.4315226805457353,
                -0.817511539324947,
                0.28879744517135664,
                -0.2168400702230724,
                -0.3516209458552335,
                -0.6941532622282944
            ],
            [
                0.8674055938715035,
                -0.676340594052196,
                0.8396368025188472,
                0.8437924741487459,
                0.7149956771927846,
                0.3321932478925824,
                0.4706836187298693,
                0.38061222267170347,
                -0.5046540115645153,
                0.518719908639869,
                -0.36505235597196006,
                -0.9842903417652131,
                -0.6947411818369011,
                0.4302931901059568,
                0.3724212747242115,
                0.39653078759863725,
                0.04139315512402453,
                0.9124319838991011,
                -0.9615419549686299,
                0.6944629121012853,
                -0.053311855126827234,
                -0.09733287314275696,
                -0.22491570882755396,
                -0.06863601932989405,
                0.027629826413068548,
                -0.21752866675240257,
                -0.1775473060379844,
                -0.15414094680879087,
                -0.5061818311143433,
                -0.09844275957185666,
                -0.5663080424350153,
                0.6322204260431139,
                0.9640448366628953,
                0.794160040339388,
                -0.39574074343323584,
                0.8309085034496164,
                0.20466576515453028,
                0.6348769114002482,
                -0.17057827161714112,
                0.5679321085864919,
                0.5145167434246063,
                -0.7752467391260445,
                -0.3825808618604518,
                -0.5337596795931439,
                0.6173182313473979,
                0.22733494056815928,
                -0.7743288799923158,
                0.4121817945324966,
                0.9301256127648916,
                0.9561925276718028,
                0.220700874956274,
                -0.5078270317149636
            ],
            [
                -0.019940924310954067,
                -0.24633232137878047,
                0.07075134488684354,
                0.06519648397506428,
                0.5542827733595741,
                -0.7424863299441369,
                -0.393966560925578,
                -0.11188620323428311,
                0.27961964016455565,
                0.7158078757010262,
                -0.18316846066872294,
                0.18592868596613044,
                0.09353382997043558,
                0.13551690889847667,
                0.011598906617577676,
                0.2748796524901187,
                0.40074221441146807,
                -0.8050174623549233,
                -0.5902846648838753,
                -0.43749661223360614,
                -0.052361721273455286,
                0.35633842002159155,
                -0.4812282449459684,
                -0.7736564092632283,
                -0.2577875688630873,
                -0.8091360508353471,
                -0.7361900789497424,
                -0.7702821405669655,
                0.6427644020578551,
                -0.31830638435984615,
                0.7575353802190239,
                0.8523739636500935,
                0.6986662874591334,
                -0.8842628711203793,
                0.5420829754742533,
                0.1644642314901228,
                -0.4797432273362501,
                0.08365990812344815,
                0.12691824056552603,
                -0.3079171506288245,
                0.7813809362854496,
                -0.5746173065260005,
                0.57751533226774,
                0.9940313065532913,
                0.9249745413690142,
                0.04887173628844366,
                0.7874832654085369,
                -0.7530357809514063,
                0.512070116455787,
                0.8278253402459064,
                -0.9677412224633359,
                0.33123310219320645
            ],
            [
                0.807387453089514,
                0.8820978348203081,
                0.6104724545461642,
                0.17347447376587977,
                0.9333357685029842,
                -0.9182232470243532,
                0.935699333723274,
                0.5341509870810408,
                0.3403995578938166,
                -0.20219089819307845,
                -0.40081989277766183,
                -0.25434486131708933,
                -0.711094975427156,
                0.195037096691709,
                0.32803765616162317,
                -0.11752254189413591,
                -0.33242910079238586,
                0.26063597177901987,
                -0.452424310129681,
                -0.1858931604555749,
                0.7291457487548854,
                0.09212170681341791,
                -0.24138013487186338,
                0.3566065122965647,
                -0.1375864066955721,
                -0.7345805143987327,
                -0.6410994084193018,
                -0.2124881267502874,
                -0.705962742104282,
                0.761922661895237,
                0.7889454710368964,
                -0.04005260098422925,
                0.06549896097108432,
                0.4948176964084505,
                0.9078046032515841,
                0.6693499831942291,
                -0.0076122643548499624,
                0.5228662302895555,
                -0.929444492940289,
                -0.8943546606497772,
                0.10130649505944245,
                0.9436685836558192,
                0.9567630329382375,
                0.304035203542792,
                0.5998064697199488,
                0.26959428643177685,
                -0.5645586060230507,
                -0.6950790027273706,
                0.8405413223379021,
                -0.4687314829350371,
                -0.1719246507558212,
                0.9502122809956519
            ],
            [
                0.11355364759282871,
                0.5974916038386477,
                -0.37808006717666665,
                0.7687374997352614,
                0.48280979910817234,
                0.7686672514046835,
                0.644073040010612,
                -0.9561992316064476,
                0.548613125001671,
                0.6801710313209393,
                -0.7566434861146774,
                -0.09381689802062398,
                -0.4332760651901182,
                -0.06747680874959627,
                0.25442742423584663,
                -0.14444201542858637,
                -0.7998031924453364,
                -0.4063031688431342,
                -0.1971847883603386,
                0.33966906392407625,
                0.34852343481204096,
                0.7570151624688595,
                -0.5068100615713891,
                0.5896656827387272,
                -0.5457085117912939,
                -0.20788661520904395,
                -0.9862556495379167,
                -0.06391695529887831,
                -0.3621569031486662,
                -0.03378208070533151,
                0.45881538984886183,
                -0.5142167724563229,
                0.7263717503164979,
                0.7719877959459112,
                -0.20287313454240463,
                0.7529005353688301,
                -0.15714994843270924,
                -0.08907326874074117,
                0.2820720785876194,
                0.2647634666123364,
                -0.8890192969960251,
                0.9073314909685164,
                -0.06986851922273773,
                -0.8507714129871249,
                0.594306413858815,
                -0.059854313693192385,
                0.31673175654823327,
                -0.6623712933219772,
                0.9184959648889033,
                -0.21160330081106116,
                0.3414631139532056,
                -0.16181220388793793
            ],
            [
                0.20326443327685872,
                0.1632956477443881,
                0.9311428033010489,
                -0.5052423131927664,
                0.6275127050145775,
                0.8400078435173821,
                0.7157573209953902,
                -0.5883631312124149,
                0.45701528335996633,
                0.2246055601731134,
                0.6647480108683792,
                0.19797001118085977,
                0.17020514139265175,
                -0.21320460736671154,
                -0.9488212320906655,
                -0.8842701766025614,
                -0.29436342302161833,
                -0.6247455517241549,
                0.5894524768857312,
                0.9146426416120534,
                0.027559817007273724,
                -0.38517720965793645,
                -0.8463757839553152,
                -0.1522680210677121,
                -0.7858071520605892,
                0.7258363602791336,
                0.7190688287060589,
                0.09934214176911649,
                0.40967768864364795,
                0.2677767363898793,
                -0.9302194443018232,
                -0.3625779494349197,
                -0.5187206709995884,
                -0.9294340884950951,
                -0.6788115385525819,
                0.09880858271134407,
                0.6053163850468815,
                0.43440266508145453,
                0.6161794090383421,
                -0.4600526432782015,
                -0.3330331073921955,
                -0.7643497164205488,
                0.7881551093298136,
                0.6915549844096356,
                -0.13127949360462599,
                0.9780246125816277,
                0.44030133309477226,
                0.43626398276336764,
                0.09826137262043222,
                0.17225966011693838,
                0.41014283371911087,
                0.8049460086305151
            ],
            [
                0.14298979990448002,
                -0.738789699134974,
                0.2802595543747237,
                -0.9517313144854,
                -0.9653713550579435,
                0.6115743512196938,
                0.8890811231533984,
                0.1174319827646364,
                -0.15217535175710517,
                0.3553002654820794,
                0.4412675567543718,
                -0.1477786176122191,
                0.4882890870853318,
                0.8282947955955307,
                -0.46170581833102586,
                -0.7585509066789453,
                0.9677000620285914,
                0.1803051136030882,
                -0.6122267855509855,
                -0.8863313046152177,
                0.6660298459940621,
                0.885734641585519,
                0.9561653562088466,
                0.691628727760399,
                -0.14991282297653297,
                -0.3713000377762694,
                -0.9400380067690639,
                0.09975657183252196,
                0.9410565621843394,
                0.3420563889449191,
                0.15847624953048212,
                -0.5560697610550007,
                0.5192735940086266,
                0.23861368277308692,
                -0.2809458764853803,
                -0.33528701810048633,
                0.2407915143323749,
                -0.3541391719381344,
                0.7505453223524763,
                0.9451235419303006,
                -0.7744278150705917,
                0.7973306300595302,
                -0.6074047961608551,
                0.24704275249758623,
                -0.04484841794766381,
                -0.8615070600074177,
                0.9402925600112981,
                -0.8345760549056722,
                0.037082825039664424,
                0.8668926418961476,
                -0.9502188483207077,
                0.6232974334166015
            ],
            [
                0.7884447078664565,
                0.6594640544428501,
                -0.1915972597419935,
                0.5541255663292386,
                -0.5853073064986176,
                0.47717854532460957,
                -0.7708375302190666,
                -0.7003420131428957,
                0.5284693336683395,
                -0.7411724989404482,
                -0.06736827001796608,
                -0.3519740775506184,
                0.06927497832760054,
                -0.18473728441633752,
                0.284087446790837,
                -0.579673105978304,
                0.2970495738699157,
                0.8447040441596343,
                0.47502557927793365,
                0.3521851998806118,
                -0.14192056421815513,
                -0.28049576161304124,
                0.5644175048646427,
                0.21745344999570215,
                0.43573164650860563,
                -0.3053772241262436,
                0.09630299450882718,
                -0.4209708584634304,
                -0.3206446650808126,
                0.08507903779187242,
                0.47459526125173124,
                0.7365863881450896,
                -0.3462923628350776,
                0.5011955734582896,
                -0.09556882975240777,
                -0.8157400630379088,
                0.5968624883552205,
                -0.8832627494003003,
                0.6217819652290095,
                0.6864365995525052,
                -0.8566898371774259,
                0.12347603994326262,
                -0.2544598795723061,
                0.3151937760474355,
                -0.7930696976674692,
                0.7055635075005322,
                0.8185370886057326,
                0.6936072973426628,
                0.30804643769391427,
                -0.9249292267550393,
                -0.17221011385265772,
                -0.7725126551995054
            ],
            [
                0.7578649653891947,
                -0.5685876325788892,
                0.5269291848063984,
                -0.5113083660378568,
                0.8818344455586995,
                -0.4035960156707461,
                -0.8060073595978636,
                -0.768996904476422,
                0.8924471090094663,
                0.2809978418991148,
                0.7233027357866986,
                0.4134306188393253,
                -0.2640049625115011,
                0.3012263702061586,
                0.24847148242993589,
                0.3458115866169702,
                0.2288387810643362,
                -0.8241903347360837,
                -0.20876141972792173,
                0.23978523788300232,
                -0.11282997833034414,
                -0.04047784960332468,
                0.5803371808253506,
                -0.4163061731834288,
                -0.5488168513257057,
                0.11288719556566562,
                -0.14200099403871458,
                -0.7626602800570823,
                -0.9759657931828938,
                0.9480133535902646,
                -0.5786755639606878,
                0.30368681719548896,
                -0.03409770217908514,
                0.855919734743511,
                0.6959948681358794,
                0.6822535525266142,
                0.2795748335337296,
                0.8815621915878791,
                -0.8887218911875621,
                0.6252429160591784,
                -0.4178900052878869,
                0.3761039450299055,
                -0.20930801599466076,
                0.11363533382782287,
                -0.49635099039637076,
                0.5767624348478018,
                0.8711670653234318,
                -0.7902988879222006,
                0.2934769183973316,
                0.26202462639016155,
                0.7021564803629095,
                -0.17374645710949177
            ],
            [
                0.869847418472667,
                -0.6685236805635999,
                0.6813998396557488,
                -0.34607253754286504,
                0.10926964134497763,
                -0.2560383253039171,
                0.3967697555253502,
                0.03259075819372126,
                -0.6249335475346238,
                -0.9189633036523974,
                -0.3727638503691719,
                0.9836115436310422,
                -0.5514102835715204,
                -0.45228951320285415,
                -0.06220956886453877,
                0.861677691029167,
                0.03876536724911861,
                0.6955084311254254,
                -0.4857200194077007,
                0.17922103970087866,
                0.22895930663190178,
                0.7993037398957927,
                0.9537472398845481,
                -0.2702481223643165,
                -0.2567306780317229,
                -0.608263274238146,
                0.13703329362023675,
                -0.6342297705528017,
                0.13841743041558185,
                0.9701156190539986,
                0.063212261849384,
                0.5447212398288228,
                0.2612510266268928,
                -0.9175245555024611,
                0.6756309221094172,
                0.3903153541612445,
                0.7597037210881941,
                -0.4422090021534977,
                -0.8671644576083657,
                -0.2597243740949049,
                0.3195386672891507,
                0.07565635930035786,
                0.966567121917886,
                0.8998002202811817,
                0.897504244350533,
                -0.5026823459921463,
                -0.00630317287650306,
                0.3874716155367701,
                -0.7646078762253203,
                0.6865037419558273,
                0.37956504479969877,
                0.11514138620449388
            ],
            [
                0.25022649138662656,
                -0.6652642426789674,
                0.4395270637368429,
                0.6300839403870884,
                -0.6528663433445856,
                0.5656021447217969,
                -0.8122856970847887,
                0.0422337299642217,
                -0.37817138156600794,
                0.00868417630844931,
                -0.5953356800649787,
                0.016467286103439616,
                0.06334013895184976,
                -0.8119310577366969,
                -0.9575774240783996,
                -0.867385406819005,
                -0.14725211429299545,
                -0.8756181848397131,
                0.0036437815493364223,
                0.9640272625143649,
                -0.9461046471867918,
                -0.0072252927938520894,
                0.8886654007141221,
                -0.18046016289860534,
                0.675292127878943,
                -0.17877038803584822,
                -0.20213698285554793,
                -0.4779476689563227,
                0.5682848754121088,
                0.43029589757453435,
                0.25612660129134235,
                0.9460933010674819,
                0.3385690890986408,
                0.6854559378129876,
                -0.8187353952082397,
                -0.9933142813946729,
                -0.2624061761511054,
                0.07863433800036157,
                -0.19390470625095668,
                -0.06842234784365164,
                -0.611744022488431,
                0.02704443835737047,
                0.43787344744511447,
                -0.20017543683148742,
                0.4126155342066926,
                -0.7341881563452892,
                0.036726444775173395,
                0.14769029366054376,
                0.8620987459592659,
                0.7821604863213341,
                0.9078843280554401,
                -0.16033438550350754
            ],
            [
                -0.30449099383194134,
                0.6775800851063492,
                0.6528306384315714,
                -0.7401680418310137,
                0.6029915282922389,
                0.11726373492159059,
                -0.28625198333606794,
                0.5304872814128447,
                0.11112477101106966,
                -0.5641794048846038,
                -0.5112474099911253,
                0.611714705391013,
                0.2741313210916305,
                0.4116155677910276,
                0.13113858981424342,
                -0.7412944488631745,
                0.19813496245072804,
                -0.13471906080959317,
                -0.7962688206806661,
                -0.3315184739151671,
                -0.2105275167569467,
                0.42771192785130463,
                0.25465816055943935,
                0.7431892672678659,
                0.9651175051708862,
                -0.3757574813784972,
                -0.18267030334329792,
                0.19966163124282055,
                -0.9585145903504095,
                0.05914386771798097,
                -0.5794431524869446,
                -0.9629316816508084,
                -0.07257137808364811,
                0.9516861669751913,
                -0.42907632907621074,
                0.932612575213122,
                0.8324770809785864,
                -0.8306297021358362,
                0.9997696240701832,
                -0.13788338246736642,
                -0.4707437181196541,
                0.5454579174881784,
                0.24506722705254913,
                -0.04283569507624185,
                0.4057583537137246,
                0.8136709911328897,
                -0.2258234147737317,
                -0.6186482781052416,
                0.2336702128229018,
                0.5991859979195153,
                -0.8888900060588514,
                -0.4421014517034787
            ],
            [
                0.7049240238939458,
                0.41992163411914807,
                -0.8407703098968755,
                0.10701205164892569,
                0.5233071568513021,
                0.23200283869147964,
                0.15104958424440018,
                0.13393945305205301,
                0.5619934559148532,
                0.28609148145507235,
                0.21481694417284114,
                -0.11574768260231338,
                -0.0652452700185886,
                0.44151559549619535,
                0.7832657812187696,
                0.350727195833509,
                0.9066952740232492,
                -0.3794061274139109,
                0.9569516924729149,
                -0.12831269401767487,
                0.8928320733346753,
                -0.2713570334650899,
                -0.39668217111575976,
                0.6420712835657161,
                -0.1517043699470091,
                0.3969967767356153,
                -0.14171884978429183,
                0.27856365143752293,
                -0.5628698682911557,
                0.9265429594319414,
                -0.7611949948771546,
                0.06952641957699912,
                0.586895116801021,
                0.9776280316204708,
                -0.9289038914032288,
                -0.7767979635212747,
                0.4577213923634642,
                0.06638360490881334,
                0.34783324367236235,
                -0.9230722031712912,
                0.40098142867158404,
                -0.3236421181258857,
                0.12762015259996895,
                -0.4170726119081174,
                -0.4603575867563303,
                -0.18921640085888658,
                -0.05158062645514638,
                0.9366066133642059,
                0.48672325406019645,
                -0.11679348290828151,
                0.43831169905188294,
                0.7436693596764965
            ],
            [
                -0.5500013707751332,
                -0.4817220221536309,
                -0.8048580486125634,
                -0.01971826272854793,
                0.12261530615874472,
                -0.8476629304849945,
                0.3962029670550704,
                0.29107410661347544,
                -0.799001368394902,
                -0.5361090091204497,
                0.435516278002098,
                0.13398058515253175,
                -0.7812035595818689,
                -0.552796087988507,
                -0.6973314069270975,
                -0.1268839828650421,
                0.24057646572334423,
                -0.7465770250013546,
                0.8217628536299826,
                -0.15314275715556458,
                -0.9269201259659954,
                -0.6583760752547549,
                -0.8752105347833274,
                0.32601190486413456,
                0.805337932273889,
                0.11733518422235889,
                -0.6904412714340007,
                -0.1599981731322513,
                -0.1482031141017186,
                0.8498198593916395,
                0.9178414063757727,
                -0.18087453739704373,
                -0.08495547106458878,
                0.890493918150721,
                0.41901956685992614,
                -0.7382966619869709,
                0.6863890934539885,
                -0.8897251044795209,
                0.9638831349667745,
                0.6862912740059341,
                0.40076081301253863,
                0.12999273287979718,
                -0.12898573262314694,
                0.9779241508190097,
                -0.5404597710248014,
                -0.22613495869280165,
                0.7353645102222004,
                0.533538421020243,
                -0.9025277597567647,
                -0.6904035814573035,
                -0.6913869985979164,
                -0.4949047512206335
            ],
            [
                0.669989377580761,
                -0.7111312966506387,
                0.20324247632479842,
                0.9097761988818014,
                -0.2102227159149641,
                0.4517150682901332,
                0.3404331076959839,
                -0.3106166755131017,
                -0.6521041957500602,
                0.952258665864409,
                -0.3822484675018758,
                0.9579880656078685,
                -0.007685550982111655,
                0.9821729914796651,
                -0.8593578780822717,
                0.9337424852511929,
                0.5872736687827036,
                -0.9695707869099517,
                0.7669828229933404,
                0.6755721189510684,
                -0.8176844468471878,
                -0.5075377880012517,
                -0.8764494059096966,
                0.058150587649404395,
                -0.1607738277440569,
                -0.44996190161141425,
                -0.5818088138765327,
                -0.34455861784049713,
                -0.2298633076522696,
                0.88060256809256,
                0.1583291792705115,
                0.7944305586862681,
                -0.9230528464800252,
                -0.9637936118165762,
                -0.2996354781843895,
                -0.5715581074095988,
                -0.6483263640443495,
                -0.7306164560107822,
                -0.2191669342852085,
                0.9126507005685895,
                0.9729685484387185,
                0.5573674674533398,
                -0.003222025250274374,
                0.19357484933317504,
                0.4595078455618484,
                -0.8184697593398205,
                0.28890360381958,
                -0.6555142470545126,
                -0.6855894050576212,
                -0.881327961476466,
                -0.10966121504288395,
                0.3173880380951257
            ],
            [
                -0.6332842422217582,
                0.5674947634960754,
                -0.8797804312918356,
                -0.6959145730384215,
                0.5797599211771205,
                -0.5495814718354306,
                -0.31351479690164785,
                -0.04223280727002643,
                -0.8935649603846278,
                0.6874414559251805,
                -0.48975205209589,
                -0.1478013308300654,
                -0.5768904253534399,
                0.7348692450036776,
                0.5152447989193669,
                0.06097965606066902,
                -0.7154766083153143,
                0.8960865827186459,
                0.4234822200406838,
                -0.9692214832129165,
                0.5214721601444958,
                0.2938979801421915,
                0.6635776252494487,
                0.626972566807132,
                0.47245735659267485,
                -0.2817729237051725,
                0.6037787714751222,
                -0.8137385569174953,
                0.9756461606872653,
                0.3559591588946751,
                0.06417321179547897,
                -0.025114904436940755,
                -0.5922103230034945,
                -0.9417894331157983,
                -0.9698533270134309,
                0.5754856114432865,
                -0.6794808966124786,
                -0.1516297485805682,
                0.5743044050507753,
                -0.30706613741921096,
                0.5732347124553485,
                0.5530992027586275,
                -0.23223796520446283,
                -0.36151870634388494,
                0.9339462423193137,
                -0.6175266826960797,
                -0.6381204755035177,
                0.9058967434267124,
                0.7219312662144446,
                -0.986104621220171,
                0.4946792618606728,
                -0.2190016161886006
            ],
            [
                0.6005827119289835,
                0.019973030080296494,
                -0.7272712455030135,
                0.7787154297917922,
                0.47374720314861096,
                0.22164944097113026,
                0.3116750946440521,
                -0.8065397878058256,
                -0.4473257547193519,
                4.02362547511359e-05,
                0.1547400362355944,
                -0.9500924816791974,
                -0.3808961451889108,
                -0.039118739693087434,
                -0.5770486912405393,
                0.9486371065591146,
                0.9201774605030018,
                -0.7710345219850985,
                -0.9701867302785898,
                -0.0744922092482907,
                -0.6340650884483117,
                0.05829467807968647,
                -0.7290372013529418,
                -0.13224668182309562,
                -0.26331320252202883,
                -0.6000077998689122,
                -0.2758891941774475,
                -0.9145232076250669,
                -0.6729337025585145,
                0.3663367781343516,
                0.15489289884035928,
                -0.5176489609700503,
                -0.23127986851612015,
                0.820632988952892,
                -0.8647978408149295,
                -0.55641751449407,
                0.9540394534886036,
                -0.16104946204089576,
                -0.46977960508471406,
                0.9694558635838655,
                0.6612098135609044,
                -0.7703344409823485,
                -0.6052796797602216,
                0.661369845417501,
                -0.8887005243920114,
                -0.8682602803059529,
                -0.6638789795859581,
                -0.46670122634386146,
                -0.37367636274838745,
                -0.6135364376182109,
                0.411486603754075,
                -0.6797802194472353
            ],
            [
                -0.12242990553642841,
                -0.0368847982154199,
                -0.9622207489427417,
                0.003983900299661558,
                0.6904399351967987,
                -0.8449063862680284,
                -0.35266284775102563,
                -0.2427163592312218,
                -0.26144850240665596,
                0.8578367547568151,
                -0.11112776645252098,
                0.18546963110110481,
                0.6519184554464721,
                -0.9717779855109066,
                -0.9367213151626155,
                0.06028577324551643,
                0.5272787739152858,
                -0.8850175201741979,
                0.47757289454363394,
                -0.8551751878477076,
                0.0016380612951909512,
                -0.5343691600943281,
                -0.068691447239972,
                0.7647690399405243,
                -0.4672447664524262,
                -0.05427100806644636,
                -0.4851427282921881,
                -0.4301970334801377,
                -0.02247045024998995,
                -0.511368932502714,
                -0.8754427362555119,
                -0.2774057931271183,
                0.6969256651068454,
                -0.535317909897083,
                -0.027232959880814533,
                0.878737197818438,
                0.6101219961073283,
                -0.6609028218290305,
                0.686287576109943,
                0.7098176231072204,
                -0.3037271274382878,
                0.5386543470265506,
                0.804800398680418,
                -0.48626997737585786,
                -0.5325926581684393,
                -0.8009371056910826,
                0.48205065111499246,
                -0.6946622255524535,
                -0.09698855783011195,
                0.27577745421259436,
                -0.5075203996757045,
                -0.5314793048742144
            ],
            [
                0.5238106258755655,
                -0.5311524654654802,
                0.3045645270208408,
                -0.7375251074106741,
                -0.5285954601068072,
                -0.38523398948350596,
                -0.2849195390964818,
                -0.8824951423053773,
                0.8244953343265167,
                -0.7328267940288378,
                -0.36318716406114127,
                -0.45415754588001045,
                -0.7887656376507433,
                -0.7927790172137514,
                -0.6595318482643384,
                0.12851617597983744,
                -0.5846476593242096,
                -0.48661551271685255,
                0.7107009620039986,
                -0.314382527398116,
                0.5865671206433682,
                -0.8386042954267068,
                -0.10756047239868227,
                -0.9409405520032192,
                -0.009255741649968563,
                -0.16602948961714925,
                -0.12168617822888517,
                -0.7145701945860643,
                0.7107968605172077,
                -0.9260157520740222,
                -0.06769401468554515,
                -0.9149689365686009,
                -0.11193505444803686,
                0.9144467978330031,
                0.5479981931015696,
                -0.428573712027563,
                0.3413249480234595,
                -0.5996403185263013,
                0.13591362534132845,
                0.3064748621877962,
                0.13614004691204862,
                -0.1992500939964057,
                -0.19653917703963697,
                0.6179422444653488,
                0.7756828524622132,
                -0.06753113161245561,
                0.4663628816879657,
                -0.383344374188332,
                0.038515206568008775,
                0.37196746628804833,
                0.3718403229734901,
                0.16751532835291827
            ],
            [
                -0.31185481375912394,
                0.7581131621478945,
                0.09497810360362036,
                0.7678724113925011,
                -0.06156325988753597,
                0.5417018932028881,
                -0.5011032917202163,
                0.5124772384454868,
                0.4200310351559182,
                -0.662036220435384,
                -0.48835521122084313,
                0.37451657819319517,
                -0.30274637452940745,
                -0.30489928041518133,
                0.8807339724741055,
                -0.17335619114294198,
                0.1794745561737685,
                0.42985051327016,
                -0.14558967448549764,
                0.5871828707472104,
                -0.3177823435655145,
                -0.4944078327809158,
                -0.7932211196931016,
                -0.7966559506915669,
                -0.5628719626978129,
                -0.013219010648213736,
                -0.4047268754763549,
                0.47227600077315657,
                0.5310969024847512,
                -0.2646200900449889,
                0.16023196034899478,
                -0.5459968086206672,
                -0.23998869301001302,
                0.044391390086021554,
                -0.2235883067289497,
                -0.6254832084805246,
                -0.770459216266407,
                -0.8391500599656265,
                -0.8224992435551111,
                -0.22106917655217528,
                -0.02894256456920208,
                -0.21502540183462138,
                0.9914596368183941,
                -0.9833539232107911,
                0.7555547775708327,
                0.3465017591254129,
                -0.46704312388567626,
                -0.8939044206444833,
                -0.2775243817619302,
                -0.26244476924972115,
                -0.10395630867495154,
                -0.9832663947311386
            ],
            [
                0.16232093575437867,
                0.8892578582502497,
                -0.7716246862508387,
                0.1320056803751739,
                0.5451953421869458,
                -0.2525235506900838,
                -0.3258138716515324,
                0.4434338224276717,
                -0.0025194179562988417,
                0.05981078606672696,
                0.7369679921386376,
                0.21924150083178917,
                -0.2718487767289275,
                -0.7834279474374857,
                -0.31405708007426725,
                -0.9584216970258226,
                -0.5295182852730529,
                -0.20719783196291308,
                -0.6375560663980637,
                0.10653235023484475,
                -0.635278271036914,
                0.5013184730838085,
                0.5587654421431423,
                0.8030926202627064,
                -0.4251715821760602,
                -0.924426967884062,
                0.6415381581151882,
                -0.012512385053663477,
                0.4592864377343533,
                -0.7929427793052113,
                -0.8755626981595059,
                0.5134358885807946,
                -0.21301134533940935,
                0.2670816250295305,
                -0.5308145131623745,
                0.8759219952087796,
                -0.7255786791411922,
                0.9544070156034037,
                -0.6164431551128242,
                -0.2679735666786731,
                0.1939309056065801,
                -0.9748550116803361,
                0.3396151450870861,
                -0.6648740653376992,
                -0.45259233361704454,
                0.7047201314930787,
                -0.03856677979117329,
                0.5103455093846265,
                0.12526988179522935,
                0.6510810693684719,
                -0.753873649282573,
                -0.7948624493807914
            ],
            [
                0.707607481015164,
                -0.26483004125965137,
                -0.5957505665224008,
                0.7254109107911506,
                -0.6327547472199468,
                -0.52073523211257,
                0.18268919802064043,
                -0.821322266678965,
                -0.4256753328480196,
                0.12177493490505742,
                -0.13258806286467562,
                0.04964392350591318,
                0.43252342556069356,
                0.21051394786165556,
                -0.07815737487774022,
                0.11577456307654277,
                0.00746426549540935,
                -0.25126454131789755,
                -0.5876080094415446,
                -0.0571421749861849,
                -0.24593406325774314,
                -0.1819994171717314,
                -0.7628226954605337,
                0.21809725067180086,
                -0.6359684085979078,
                -0.8685085614730403,
                0.5696987741434283,
                0.533176404440775,
                0.6602366345248187,
                -0.4420064307562275,
                -0.3934781303175763,
                -0.46573368775427215,
                -0.6077119797855044,
                0.48399890935458,
                -0.3163998652038673,
                0.21087527796636096,
                0.007061334530098939,
                -0.024960288983848944,
                0.9918176550724698,
                0.618706533804039,
                0.636077804779553,
                -0.9653666393635401,
                0.5844279246116715,
                0.01862266360313125,
                -0.6731144328178658,
                -0.12959178521768,
                0.1524430977668385,
                -0.948921911138511,
                0.7462264828766965,
                -0.9991825146759838,
                -0.0170655377224338,
                0.5635236180854164
            ],
            [
                0.9758435640339584,
                0.7164235086089732,
                -0.8656721839213972,
                0.09417864765583528,
                -0.6443122782870121,
                0.42870469710330195,
                0.06519281008304123,
                0.820291080651874,
                -0.9341227586948169,
                -0.7375318272038731,
                0.9499496174228723,
                -0.8502279093659129,
                -0.2914491018952219,
                -0.007233993320553855,
                0.3665878967028362,
                0.9180128241418759,
                0.4103965207573239,
                -0.3373027095107628,
                0.6835721712950313,
                -0.13776176265625018,
                0.03726378929404239,
                0.2361230338334026,
                -0.3132488375573075,
                -0.7429022479890461,
                -0.7306860518486702,
                -0.006880148621962734,
                0.7250874068423396,
                -0.6862702085104189,
                0.9820067880377898,
                -0.06836959869694881,
                0.3328224491829581,
                -0.7765292775031225,
                0.36456586264812874,
                -0.44978131660894616,
                -0.6842097430838525,
                0.2028575845160845,
                0.12113364889571843,
                0.9120995082340291,
                0.025194151636299678,
                0.9904612721143236,
                0.29985574181271835,
                0.1635066848259874,
                -0.8460336509579103,
                0.33125225122967494,
                -0.24168839448921142,
                -0.34256392699413496,
                0.9802068759952212,
                -0.06356698866661548,
                0.1297331899203733,
                0.8659376588394401,
                0.3850240764842039,
                0.05671314160057661
            ],
            [
                0.279309372621924,
                -0.49270487608070956,
                -0.8522959091627684,
                -0.7450232528781997,
                0.11854781159430705,
                0.24698873849745184,
                0.987695884523569,
                -0.6779564463646053,
                0.2960473102922554,
                0.44522083664044976,
                0.4212114476934061,
                -0.6274937550048143,
                0.40466867030922704,
                0.27679454271192316,
                0.3737477607251265,
                0.034287377821495824,
                0.6861751817194761,
                0.8017664918998193,
                0.2997701879898216,
                -0.5407810690731325,
                0.508739333986868,
                0.6780646519723279,
                -0.3172306445292783,
                -0.37317286073400946,
                -0.11561383746176146,
                -0.4263832284483555,
                -0.9286864556578065,
                -0.9547609263992984,
                0.9295681229877142,
                0.9853083368946562,
                0.4673407204563236,
                -0.9158268034570238,
                -0.07131462129600386,
                -0.8174640583063948,
                0.7998251965106804,
                0.19910956884321096,
                -0.4229500735619953,
                -0.4619500768284368,
                0.6450159690194652,
                -0.9445486283855686,
                -0.4746458257623425,
                0.06095162589408143,
                0.4809588396214963,
                -0.276414679529561,
                -0.9290981102502618,
                -0.9720932270307303,
                -0.6375507206053008,
                -0.5006490890698971,
                -0.662995780894891,
                -0.19615475073835387,
                -0.5383208056446587,
                0.23104420739137144
            ],
            [
                0.4524975708904577,
                -0.7165039217553033,
                -0.9960708022035434,
                0.6985799574998037,
                -0.8074270409228517,
                0.020267146999952246,
                0.38173885800195606,
                0.21504183173566438,
                0.6303420948644414,
                -0.6126836272073308,
                0.9622378909597535,
                0.25985922324964505,
                0.3999481599042465,
                -0.019609779366707603,
                -0.815584602643143,
                0.3354440355271735,
                -0.9544494320283201,
                0.19621150765194972,
                0.6982624648997187,
                0.6471693394991731,
                -0.29681212568467763,
                -0.9880105445750451,
                0.35137321407272015,
                0.8777954035636439,
                0.3289752587559118,
                -0.5259585429381626,
                0.6761727135657112,
                0.36405018461780103,
                -0.7218879121930675,
                -0.8424529782399177,
                -0.531564724035742,
                -0.5859116122238528,
                0.4866079682686264,
                0.5719750537468857,
                0.9146936582995349,
                0.8578870074453073,
                0.8557264356745766,
                0.23218129753544847,
                0.07818278283000635,
                0.00017596611878900603,
                -0.7562209113137224,
                -0.9248757262316314,
                0.7077094360265674,
                0.30321572258558716,
                0.3099797109658482,
                -0.5896232797758392,
                0.3648662976539816,
                0.4382107018606962,
                0.7775651216856665,
                0.6912871740135134,
                0.835294282588648,
                0.5663224912417035
            ],
            [
                -0.10808112534384184,
                -0.863470263469472,
                -0.6310913683182602,
                0.4470962429709875,
                0.12787448424445969,
                0.02747945363070059,
                -0.3325124836638407,
                0.48878231759145274,
                0.4907293424748804,
                0.9256874421368719,
                -0.778955260275684,
                -0.9477363020403751,
                0.8023889109224778,
                0.1518678050820883,
                -0.9637246983458732,
                0.5874592374772567,
                -0.4359603636655365,
                -0.8677597628362894,
                -0.6901594694910436,
                0.5277498496926425,
                0.4631387212941833,
                -0.16775583223422097,
                0.6241201687198483,
                0.5757175044571423,
                0.7639095348394231,
                -0.602813130854426,
                0.1331033114913216,
                0.5709040526018825,
                0.8836403863946996,
                -0.5441062506949252,
                0.9732647811723671,
                -0.2212659659003664,
                -0.5948074839697375,
                -0.8728216810144007,
                0.7396295729288653,
                -0.6078010245528491,
                0.5924579757676811,
                -0.5190543222844393,
                -0.886352118515159,
                -0.7724030359355598,
                0.6050639146061552,
                -0.9798107009552806,
                -0.03242178334299983,
                0.006797705125030307,
                -0.7552903643630371,
                0.33138920547966255,
                -0.9128166609650201,
                -0.5219423594807353,
                -0.2060958528172403,
                0.3554015123623906,
                0.8890000997500356,
                0.6619053369322485
            ],
            [
                0.8625424980635379,
                -0.47354092315333696,
                0.9178724950113344,
                0.5863406228835104,
                -0.8700442856821591,
                -0.6433636462440913,
                -0.8327992420994637,
                -0.18151364006781123,
                0.4670715605364515,
                -0.35295963396883656,
                -0.30722024080307,
                -0.6926051022581028,
                0.7797566243676755,
                0.6083822876591951,
                -0.006588345004191476,
                0.9407706456572602,
                -0.9475551661958863,
                -0.602771883884792,
                -0.8577686731640273,
                -0.6806309875451566,
                -0.5683921019480267,
                -0.3073944543580618,
                0.7433644673606892,
                0.31323786724446356,
                -0.9641260406192542,
                -0.4457911538557542,
                -0.8746854556493135,
                -0.18681174767109243,
                0.2011221293761296,
                -0.15756975502311343,
                0.40209191637604946,
                -0.7056347629738471,
                -0.8680228764132805,
                -0.8960620521645166,
                -0.8399566518934747,
                -0.5114644872187708,
                0.6758713354063486,
                0.3840666104274777,
                -0.7044381173019232,
                -0.053454817724791326,
                0.8002909699594798,
                0.4863530597917165,
                -0.189436223376519,
                -0.37697936897741346,
                -0.4907807796080754,
